{"classes": ["breathless", "cough", "dizziness", "fever", "vomit", "weakness"], "n_classes": 6, "trees": [{"children_left": [1, 2, 3, -1, -1, -1, 7, 8, -1, 10, 11, -1, -1, 14, 15, 16, -1, -1, 19, 20, -1, -1, -1, 24, 25, -1, 27, 28, -1, -1, -1, 32, 33, 34, -1, -1, 37, 38, -1, -1, -1, 42, -1, 44, -1, -1, -1], "children_right": [6, 5, 4, -1, -1, -1, 46, 9, -1, 13, 12, -1, -1, 23, 18, 17, -1, -1, 22, 21, -1, -1, -1, 31, 26, -1, 30, 29, -1, -1, -1, 41, 36, 35, -1, -1, 40, 39, -1, -1, -1, 43, -1, 45, -1, -1, -1], "feature": [27, 41, 40, -2, -2, -2, 7, 3, -2, 41, 17, -2, -2, 24, 19, 39, -2, -2, 20, 15, -2, -2, -2, 21, 40, -2, 40, 15, -2, -2, -2, 27, 26, 26, -2, -2, 37, 13, -2, -2, -2, 4, -2, 23, -2, -2, -2], "threshold": [-0.6436666250228882, -0.8312044739723206, 0.049673404544591904, -2.0, -2.0, -2.0, 0.2151294443756342, -0.39362697303295135, -2.0, -0.7883705496788025, -0.8866773247718811, -2.0, -2.0, -0.16279011964797974, -0.5228300094604492, -0.09932458028197289, -2.0, -2.0, -0.14289721101522446, -0.5970921069383621, -2.0, -2.0, -2.0, -0.7353203594684601, -0.212253175675869, -2.0, 0.2366037368774414, -0.9132043719291687, -2.0, -2.0, -2.0, -0.3893943428993225, -0.02848984207957983, -0.029551039449870586, -2.0, -2.0, -0.5545743405818939, -0.6600480675697327, -2.0, -2.0, -2.0, -0.23696935921907425, -2.0, -0.3960625622421503, -2.0, -2.0, -2.0], "value": [[[0.16145833333333334, 0.16458333333333333, 0.17395833333333333, 0.15104166666666666, 0.18854166666666666, 0.16041666666666668]], [[0.0, 0.0, 0.9939393939393939, 0.006060606060606061, 0.0, 0.0]], [[0.0, 0.0, 0.8571428571428571, 0.14285714285714285, 0.0, 0.0]], [[0.0, 0.0, 0.0, 1.0, 0.0, 0.0]], [[0.0, 0.0, 1.0, 0.0, 0.0, 0.0]], [[0.0, 0.0, 1.0, 0.0, 0.0, 0.0]], [[0.1949685534591195, 0.19874213836477989, 0.0037735849056603774, 0.1811320754716981, 0.22767295597484277, 0.19371069182389938]], [[0.24180967238689546, 0.24648985959438377, 0.0046801872074883, 0.22464898595943839, 0.2823712948517941, 0.0]], [[0.0, 1.0, 0.0, 0.0, 0.0, 0.0]], [[0.31376518218623484, 0.022267206477732792, 0.006072874493927126, 0.291497975708502, 0.36639676113360325, 0.0]], [[0.0, 0.0, 0.0, 0.9594594594594594, 0.04054054054054054, 0.0]], [[0.0, 0.0, 0.0, 0.0, 1.0, 0.0]], [[0.0, 0.0, 0.0, 1.0, 0.0, 0.0]], [[0.4479768786127168, 0.031791907514450865, 0.008670520231213872, 0.005780346820809248, 0.5057803468208093, 0.0]], [[0.03409090909090909, 0.011363636363636364, 0.0, 0.0, 0.9545454545454546, 0.0]], [[0.8, 0.2, 0.0, 0.0, 0.0, 0.0]], [[1.0, 0.0, 0.0, 0.0, 0.0, 0.0]], [[0.0, 1.0, 0.0, 0.0, 0.0, 0.0]], [[0.011695906432748537, 0.005847953216374269, 0.0, 0.0, 0.9824561403508771, 0.0]], [[0.0, 0.005917159763313609, 0.0, 0.0, 0.9940828402366864, 0.0]], [[0.0, 0.0, 0.0, 0.0, 1.0, 0.0]], [[0.0, 1.0, 0.0, 0.0, 0.0, 0.0]], [[1.0, 0.0, 0.0, 0.0, 0.0, 0.0]], [[0.8764705882352941, 0.052941176470588235, 0.01764705882352941, 0.011764705882352941, 0.041176470588235294, 0.0]], [[0.0, 0.125, 0.375, 0.125, 0.375, 0.0]], [[0.0, 0.0, 1.0, 0.0, 0.0, 0.0]], [[0.0, 0.2, 0.0, 0.2, 0.6, 0.0]], [[0.0, 0.5, 0.0, 0.5, 0.0, 0.0]], [[0.0, 1.0, 0.0, 0.0, 0.0, 0.0]], [[0.0, 0.0, 0.0, 1.0, 0.0, 0.0]], [[0.0, 0.0, 0.0, 0.0, 1.0, 0.0]], [[0.9197530864197531, 0.04938271604938271, 0.0, 0.006172839506172839, 0.024691358024691357, 0.0]], [[0.9726027397260274, 0.0, 0.0, 0.0, 0.0273972602739726, 0.0]], [[0.896551724137931, 0.0, 0.0, 0.0, 0.10344827586206896, 0.0]], [[1.0, 0.0, 0.0, 0.0, 0.0, 0.0]], [[0.0, 0.0, 0.0, 0.0, 1.0, 0.0]], [[0.9914529914529915, 0.0, 0.0, 0.0, 0.008547008547008548, 0.0]], [[0.875, 0.0, 0.0, 0.0, 0.125, 0.0]], [[1.0, 0.0, 0.0, 0.0, 0.0, 0.0]], [[0.0, 0.0, 0.0, 0.0, 1.0, 0.0]], [[1.0, 0.0, 0.0, 0.0, 0.0, 0.0]], [[0.4375, 0.5, 0.0, 0.0625, 0.0, 0.0]], [[0.0, 1.0, 0.0, 0.0, 0.0, 0.0]], [[0.875, 0.0, 0.0, 0.125, 0.0, 0.0]], [[1.0, 0.0, 0.0, 0.0, 0.0, 0.0]], [[0.0, 0.0, 0.0, 1.0, 0.0, 0.0]], [[0.0, 0.0, 0.0, 0.0, 0.0, 1.0]]]}, {"children_left": [1, -1, 3, 4, 5, -1, -1, 8, 9, 10, -1, -1, 13, -1, -1, 16, 17, 18, -1, -1, 21, -1, 23, -1, -1, 26, 27, -1, 29, -1, -1, 32, 33, 34, -1, -1, -1, 38, -1, 40, -1, -1, -1], "children_right": [2, -1, 42, 7, 6, -1, -1, 15, 12, 11, -1, -1, 14, -1, -1, 25, 20, 19, -1, -1, 22, -1, 24, -1, -1, 31, 28, -1, 30, -1, -1, 37, 36, 35, -1, -1, -1, 39, -1, 41, -1, -1, -1], "feature": [35, -2, 33, 30, 37, -2, -2, 31, 9, 10, -2, -2, 21, -2, -2, 28, 11, 27, -2, -2, 26, -2, 24, -2, -2, 8, 13, -2, 34, -2, -2, 31, 37, 7, -2, -2, -2, 41, -2, 35, -2, -2, -2], "threshold": [-0.5440180897712708, -2.0, 0.4680803194642067, -0.7574678957462311, -0.233393132686615, -2.0, -2.0, -0.8346774578094482, -0.31593576073646545, -0.011385414749383926, -2.0, -2.0, -0.6700659692287445, -2.0, -2.0, -0.14800169318914413, -0.5267134308815002, -0.3080148920416832, -2.0, -2.0, -0.10050312429666519, -2.0, -0.20664306730031967, -2.0, -2.0, -0.4695952981710434, -0.6638332307338715, -2.0, 0.03524583391845226, -2.0, -2.0, -0.7444325983524323, -0.553795576095581, -0.2568720877170563, -2.0, -2.0, -2.0, -0.6195143461227417, -2.0, -0.04268047213554382, -2.0, -2.0, -2.0], "value": [[[0.15520833333333334, 0.16770833333333332, 0.18854166666666666, 0.16770833333333332, 0.15625, 0.16458333333333333]], [[0.0, 0.0, 1.0, 0.0, 0.0, 0.0]], [[0.19005102040816327, 0.20535714285714285, 0.006377551020408163, 0.20535714285714285, 0.1913265306122449, 0.20153061224489796]], [[0.2380191693290735, 0.2571884984025559, 0.007987220447284345, 0.2571884984025559, 0.23961661341853036, 0.0]], [[0.006666666666666667, 0.9933333333333333, 0.0, 0.0, 0.0, 0.0]], [[1.0, 0.0, 0.0, 0.0, 0.0, 0.0]], [[0.0, 1.0, 0.0, 0.0, 0.0, 0.0]], [[0.31092436974789917, 0.025210084033613446, 0.01050420168067227, 0.3382352941176471, 0.31512605042016806, 0.0]], [[0.0, 0.011627906976744186, 0.029069767441860465, 0.9186046511627907, 0.040697674418604654, 0.0]], [[0.0, 0.0, 0.4166666666666667, 0.0, 0.5833333333333334, 0.0]], [[0.0, 0.0, 0.0, 0.0, 1.0, 0.0]], [[0.0, 0.0, 1.0, 0.0, 0.0, 0.0]], [[0.0, 0.0125, 0.0, 0.9875, 0.0, 0.0]], [[0.0, 0.0, 0.0, 1.0, 0.0, 0.0]], [[0.0, 1.0, 0.0, 0.0, 0.0, 0.0]], [[0.4868421052631579, 0.03289473684210526, 0.0, 0.009868421052631578, 0.47039473684210525, 0.0]], [[0.04697986577181208, 0.0, 0.0, 0.0, 0.9530201342281879, 0.0]], [[0.8333333333333334, 0.0, 0.0, 0.0, 0.16666666666666666, 0.0]], [[1.0, 0.0, 0.0, 0.0, 0.0, 0.0]], [[0.0, 0.0, 0.0, 0.0, 1.0, 0.0]], [[0.013986013986013986, 0.0, 0.0, 0.0, 0.986013986013986, 0.0]], [[0.0, 0.0, 0.0, 0.0, 1.0, 0.0]], [[0.2, 0.0, 0.0, 0.0, 0.8, 0.0]], [[0.0, 0.0, 0.0, 0.0, 1.0, 0.0]], [[1.0, 0.0, 0.0, 0.0, 0.0, 0.0]], [[0.9096774193548387, 0.06451612903225806, 0.0, 0.01935483870967742, 0.0064516129032258064, 0.0]], [[0.5789473684210527, 0.3684210526315789, 0.0, 0.05263157894736842, 0.0, 0.0]], [[0.0, 1.0, 0.0, 0.0, 0.0, 0.0]], [[0.9166666666666666, 0.0, 0.0, 0.08333333333333333, 0.0, 0.0]], [[0.0, 0.0, 0.0, 1.0, 0.0, 0.0]], [[1.0, 0.0, 0.0, 0.0, 0.0, 0.0]], [[0.9558823529411765, 0.022058823529411766, 0.0, 0.014705882352941176, 0.007352941176470588, 0.0]], [[0.9923076923076923, 0.0, 0.0, 0.0, 0.007692307692307693, 0.0]], [[0.9523809523809523, 0.0, 0.0, 0.0, 0.047619047619047616, 0.0]], [[1.0, 0.0, 0.0, 0.0, 0.0, 0.0]], [[0.0, 0.0, 0.0, 0.0, 1.0, 0.0]], [[1.0, 0.0, 0.0, 0.0, 0.0, 0.0]], [[0.16666666666666666, 0.5, 0.0, 0.3333333333333333, 0.0, 0.0]], [[0.0, 1.0, 0.0, 0.0, 0.0, 0.0]], [[0.3333333333333333, 0.0, 0.0, 0.6666666666666666, 0.0, 0.0]], [[1.0, 0.0, 0.0, 0.0, 0.0, 0.0]], [[0.0, 0.0, 0.0, 1.0, 0.0, 0.0]], [[0.0, 0.0, 0.0, 0.0, 0.0, 1.0]]]}, {"children_left": [1, -1, 3, 4, 5, -1, -1, -1, 9, 10, 11, -1, -1, 14, 15, -1, -1, -1, 19, 20, -1, 22, -1, -1, 25, 26, 27, 28, 29, -1, -1, -1, 33, -1, 35, 36, -1, -1, 39, 40, -1, -1, -1, 44, -1, -1, -1], "children_right": [2, -1, 8, 7, 6, -1, -1, -1, 18, 13, 12, -1, -1, 17, 16, -1, -1, -1, 24, 21, -1, 23, -1, -1, 46, 43, 32, 31, 30, -1, -1, -1, 34, -1, 38, 37, -1, -1, 42, 41, -1, -1, -1, 45, -1, -1, -1], "feature": [12, -2, 21, 5, 23, -2, -2, -2, 30, 28, 8, -2, -2, 34, 23, -2, -2, -2, 35, 7, -2, 15, -2, -2, 19, 19, 29, 36, 33, -2, -2, -2, 24, -2, 23, 20, -2, -2, 15, 6, -2, -2, -2, 40, -2, -2, -2], "threshold": [-0.9197130501270294, -2.0, -0.7563551366329193, -0.2039961740374565, -1.116113543510437, -2.0, -2.0, -2.0, -0.17626790702342987, -0.5857776403427124, -0.7317548394203186, -2.0, -2.0, -0.07568902336061001, -0.8561832904815674, -2.0, -2.0, -2.0, -0.43491096794605255, -0.26908380538225174, -2.0, -0.6491782665252686, -2.0, -2.0, -0.05555438995361328, -0.4357561767101288, -0.6973519623279572, 0.11975215375423431, -0.9649581909179688, -2.0, -2.0, -2.0, -0.16359815001487732, -2.0, -0.8735733330249786, -0.05983905680477619, -2.0, -2.0, -0.8565165996551514, -0.33610501885414124, -2.0, -2.0, -2.0, 0.22487784922122955, -2.0, -2.0, -2.0], "value": [[[0.1625, 0.17916666666666667, 0.18541666666666667, 0.1625, 0.18333333333333332, 0.12708333333333333]], [[0.0, 1.0, 0.0, 0.0, 0.0, 0.0]], [[0.1947565543071161, 0.016229712858926344, 0.2222222222222222, 0.1947565543071161, 0.21972534332084895, 0.1523096129837703]], [[0.0, 0.0, 0.9888268156424581, 0.0111731843575419, 0.0, 0.0]], [[0.0, 0.0, 0.9943820224719101, 0.0056179775280898875, 0.0, 0.0]], [[0.0, 0.0, 0.0, 1.0, 0.0, 0.0]], [[0.0, 0.0, 1.0, 0.0, 0.0, 0.0]], [[0.0, 0.0, 0.0, 1.0, 0.0, 0.0]], [[0.2508038585209003, 0.02090032154340836, 0.001607717041800643, 0.24758842443729903, 0.2829581993569132, 0.19614147909967847]], [[0.03910614525139665, 0.01675977653631285, 0.0, 0.0223463687150838, 0.9217877094972067, 0.0]], [[0.625, 0.375, 0.0, 0.0, 0.0, 0.0]], [[1.0, 0.0, 0.0, 0.0, 0.0, 0.0]], [[0.0, 1.0, 0.0, 0.0, 0.0, 0.0]], [[0.011695906432748537, 0.0, 0.0, 0.023391812865497075, 0.9649122807017544, 0.0]], [[0.011976047904191617, 0.0, 0.0, 0.0, 0.9880239520958084, 0.0]], [[1.0, 0.0, 0.0, 0.0, 0.0, 0.0]], [[0.0, 0.0, 0.0, 0.0, 1.0, 0.0]], [[0.0, 0.0, 0.0, 1.0, 0.0, 0.0]], [[0.3363431151241535, 0.022573363431151242, 0.002257336343115124, 0.33860045146726864, 0.024830699774266364, 0.27539503386004516]], [[0.0, 0.006622516556291391, 0.0, 0.9867549668874173, 0.006622516556291391, 0.0]], [[0.0, 0.0, 0.0, 0.0, 1.0, 0.0]], [[0.0, 0.006666666666666667, 0.0, 0.9933333333333333, 0.0, 0.0]], [[0.0, 0.0, 0.0, 1.0, 0.0, 0.0]], [[0.0, 1.0, 0.0, 0.0, 0.0, 0.0]], [[0.5102739726027398, 0.030821917808219176, 0.003424657534246575, 0.003424657534246575, 0.03424657534246575, 0.4178082191780822]], [[0.8764705882352941, 0.052941176470588235, 0.0058823529411764705, 0.0058823529411764705, 0.058823529411764705, 0.0]], [[0.906832298136646, 0.018633540372670808, 0.006211180124223602, 0.006211180124223602, 0.062111801242236024, 0.0]], [[0.0, 0.0, 0.2, 0.2, 0.6, 0.0]], [[0.0, 0.0, 0.5, 0.5, 0.0, 0.0]], [[0.0, 0.0, 0.0, 1.0, 0.0, 0.0]], [[0.0, 0.0, 1.0, 0.0, 0.0, 0.0]], [[0.0, 0.0, 0.0, 0.0, 1.0, 0.0]], [[0.9358974358974359, 0.019230769230769232, 0.0, 0.0, 0.04487179487179487, 0.0]], [[0.0, 0.0, 0.0, 0.0, 1.0, 0.0]], [[0.954248366013072, 0.0196078431372549, 0.0, 0.0, 0.026143790849673203, 0.0]], [[0.7894736842105263, 0.0, 0.0, 0.0, 0.21052631578947367, 0.0]], [[0.0, 0.0, 0.0, 0.0, 1.0, 0.0]], [[1.0, 0.0, 0.0, 0.0, 0.0, 0.0]], [[0.9776119402985075, 0.022388059701492536, 0.0, 0.0, 0.0, 0.0]], [[0.8846153846153846, 0.11538461538461539, 0.0, 0.0, 0.0, 0.0]], [[0.0, 1.0, 0.0, 0.0, 0.0, 0.0]], [[1.0, 0.0, 0.0, 0.0, 0.0, 0.0]], [[1.0, 0.0, 0.0, 0.0, 0.0, 0.0]], [[0.3333333333333333, 0.6666666666666666, 0.0, 0.0, 0.0, 0.0]], [[1.0, 0.0, 0.0, 0.0, 0.0, 0.0]], [[0.0, 1.0, 0.0, 0.0, 0.0, 0.0]], [[0.0, 0.0, 0.0, 0.0, 0.0, 1.0]]]}, {"children_left": [1, 2, -1, 4, -1, -1, 7, 8, -1, -1, 11, 12, 13, -1, -1, 16, 17, 18, -1, 20, -1, 22, -1, -1, -1, 26, 27, -1, -1, 30, 31, 32, -1, -1, -1, -1, -1], "children_right": [6, 3, -1, 5, -1, -1, 10, 9, -1, -1, 36, 15, 14, -1, -1, 25, 24, 19, -1, 21, -1, 23, -1, -1, -1, 29, 28, -1, -1, 35, 34, 33, -1, -1, -1, -1, -1], "feature": [35, 9, -2, 34, -2, -2, 31, 5, -2, -2, 9, 30, 15, -2, -2, 24, 22, 23, -2, 28, -2, 24, -2, -2, -2, 23, 17, -2, -2, 31, 2, 32, -2, -2, -2, -2, -2], "threshold": [-0.5449272096157074, -0.6266563236713409, -2.0, -0.262074526399374, -2.0, -2.0, -0.8360439240932465, -0.1914953961968422, -2.0, -2.0, 0.23888025805354118, -0.7659311890602112, -0.5233166217803955, -2.0, -2.0, -0.16359815001487732, -0.16842015832662582, -0.864241749048233, -2.0, -0.14800169318914413, -2.0, -0.26054784655570984, -2.0, -2.0, -2.0, -0.8849504590034485, -1.0583588778972626, -2.0, -2.0, -0.7448587715625763, -0.13355301320552826, 0.12243073433637619, -2.0, -2.0, -2.0, -2.0, -2.0], "value": [[[0.17291666666666666, 0.16666666666666666, 0.16458333333333333, 0.16354166666666667, 0.175, 0.15729166666666666]], [[0.0, 0.0, 0.9935897435897436, 0.00641025641025641, 0.0, 0.0]], [[0.0, 0.0, 1.0, 0.0, 0.0, 0.0]], [[0.0, 0.0, 0.6666666666666666, 0.3333333333333333, 0.0, 0.0]], [[0.0, 0.0, 1.0, 0.0, 0.0, 0.0]], [[0.0, 0.0, 0.0, 1.0, 0.0, 0.0]], [[0.2064676616915423, 0.19900497512437812, 0.0037313432835820895, 0.19402985074626866, 0.208955223880597, 0.18781094527363185]], [[0.0, 0.0, 0.0, 0.9872611464968153, 0.012738853503184714, 0.0]], [[0.0, 0.0, 0.0, 0.0, 1.0, 0.0]], [[0.0, 0.0, 0.0, 1.0, 0.0, 0.0]], [[0.25656877897990726, 0.2472952086553323, 0.00463678516228748, 0.0015455950540958269, 0.25656877897990726, 0.23338485316846985]], [[0.3346774193548387, 0.3225806451612903, 0.006048387096774193, 0.0020161290322580645, 0.3346774193548387, 0.0]], [[0.006622516556291391, 0.9933774834437086, 0.0, 0.0, 0.0, 0.0]], [[0.0, 1.0, 0.0, 0.0, 0.0, 0.0]], [[1.0, 0.0, 0.0, 0.0, 0.0, 0.0]], [[0.4782608695652174, 0.028985507246376812, 0.008695652173913044, 0.002898550724637681, 0.4811594202898551, 0.0]], [[0.03468208092485549, 0.0, 0.0, 0.005780346820809248, 0.9595375722543352, 0.0]], [[0.005952380952380952, 0.0, 0.0, 0.005952380952380952, 0.9880952380952381, 0.0]], [[1.0, 0.0, 0.0, 0.0, 0.0, 0.0]], [[0.0, 0.0, 0.0, 0.005988023952095809, 0.9940119760479041, 0.0]], [[0.0, 0.0, 0.0, 0.0, 1.0, 0.0]], [[0.0, 0.0, 0.0, 0.25, 0.75, 0.0]], [[0.0, 0.0, 0.0, 1.0, 0.0, 0.0]], [[0.0, 0.0, 0.0, 0.0, 1.0, 0.0]], [[1.0, 0.0, 0.0, 0.0, 0.0, 0.0]], [[0.9244186046511628, 0.05813953488372093, 0.01744186046511628, 0.0, 0.0, 0.0]], [[0.0, 0.25, 0.75, 0.0, 0.0, 0.0]], [[0.0, 1.0, 0.0, 0.0, 0.0, 0.0]], [[0.0, 0.0, 1.0, 0.0, 0.0, 0.0]], [[0.9464285714285714, 0.05357142857142857, 0.0, 0.0, 0.0, 0.0]], [[0.9695121951219512, 0.03048780487804878, 0.0, 0.0, 0.0, 0.0]], [[0.7619047619047619, 0.23809523809523808, 0.0, 0.0, 0.0, 0.0]], [[1.0, 0.0, 0.0, 0.0, 0.0, 0.0]], [[0.0, 1.0, 0.0, 0.0, 0.0, 0.0]], [[1.0, 0.0, 0.0, 0.0, 0.0, 0.0]], [[0.0, 1.0, 0.0, 0.0, 0.0, 0.0]], [[0.0, 0.0, 0.0, 0.0, 0.0, 1.0]]]}, {"children_left": [1, 2, -1, 4, 5, 6, -1, 8, -1, -1, 11, -1, -1, 14, 15, -1, 17, 18, 19, -1, -1, -1, -1, 24, 25, 26, -1, -1, 29, 30, -1, -1, 33, 34, -1, -1, -1, 38, -1, 40, -1, -1, -1], "children_right": [42, 3, -1, 13, 10, 7, -1, 9, -1, -1, 12, -1, -1, 23, 16, -1, 22, 21, 20, -1, -1, -1, -1, 37, 28, 27, -1, -1, 32, 31, -1, -1, 36, 35, -1, -1, -1, 39, -1, 41, -1, -1, -1], "feature": [29, 36, -2, 29, 3, 29, -2, 34, -2, -2, 19, -2, -2, 20, 17, -2, 27, 3, 29, -2, -2, -2, -2, 31, 7, 35, -2, -2, 16, 36, -2, -2, 24, 27, -2, -2, -2, 4, -2, 11, -2, -2, -2], "threshold": [0.38273855298757553, -0.8463031649589539, -2.0, -0.6971735060214996, -0.05225944332778454, -0.7244687676429749, -2.0, -0.03552386537194252, -2.0, -2.0, -0.4414028376340866, -2.0, -2.0, -0.14341962337493896, -0.811929315328598, -2.0, -0.35775265097618103, -0.027870251098647714, -0.4948519468307495, -2.0, -2.0, -2.0, -2.0, -0.7444325983524323, -0.4364066869020462, -0.3087774068117142, -2.0, -2.0, -0.30337072908878326, 0.17849978804588318, -2.0, -2.0, -0.04666684567928314, -0.4600798785686493, -2.0, -2.0, -2.0, -0.23749473690986633, -2.0, -0.30970123410224915, -2.0, -2.0, -2.0], "value": [[[0.16354166666666667, 0.18020833333333333, 0.14895833333333333, 0.16145833333333334, 0.178125, 0.16770833333333332]], [[0.1964956195244055, 0.2165206508135169, 0.17897371714643304, 0.1939924906132666, 0.21401752190237797, 0.0]], [[0.0, 1.0, 0.0, 0.0, 0.0, 0.0]], [[0.2453125, 0.021875, 0.2234375, 0.2421875, 0.2671875, 0.0]], [[0.0, 0.009933774834437087, 0.4735099337748344, 0.5, 0.016556291390728478, 0.0]], [[0.0, 0.0, 0.9662162162162162, 0.0, 0.033783783783783786, 0.0]], [[0.0, 0.0, 1.0, 0.0, 0.0, 0.0]], [[0.0, 0.0, 0.16666666666666666, 0.0, 0.8333333333333334, 0.0]], [[0.0, 0.0, 1.0, 0.0, 0.0, 0.0]], [[0.0, 0.0, 0.0, 0.0, 1.0, 0.0]], [[0.0, 0.01948051948051948, 0.0, 0.9805194805194806, 0.0, 0.0]], [[0.0, 0.0, 0.0, 1.0, 0.0, 0.0]], [[0.0, 1.0, 0.0, 0.0, 0.0, 0.0]], [[0.46449704142011833, 0.03254437869822485, 0.0, 0.011834319526627219, 0.4911242603550296, 0.0]], [[0.011494252873563218, 0.022988505747126436, 0.0, 0.017241379310344827, 0.9482758620689655, 0.0]], [[0.0, 0.0, 0.0, 0.0, 1.0, 0.0]], [[0.2, 0.4, 0.0, 0.3, 0.1, 0.0]], [[0.3333333333333333, 0.0, 0.0, 0.5, 0.16666666666666666, 0.0]], [[0.6666666666666666, 0.0, 0.0, 0.0, 0.3333333333333333, 0.0]], [[0.0, 0.0, 0.0, 0.0, 1.0, 0.0]], [[1.0, 0.0, 0.0, 0.0, 0.0, 0.0]], [[0.0, 0.0, 0.0, 1.0, 0.0, 0.0]], [[0.0, 1.0, 0.0, 0.0, 0.0, 0.0]], [[0.9451219512195121, 0.042682926829268296, 0.0, 0.006097560975609756, 0.006097560975609756, 0.0]], [[0.9745222929936306, 0.01910828025477707, 0.0, 0.0, 0.006369426751592357, 0.0]], [[0.8, 0.2, 0.0, 0.0, 0.0, 0.0]], [[1.0, 0.0, 0.0, 0.0, 0.0, 0.0]], [[0.0, 1.0, 0.0, 0.0, 0.0, 0.0]], [[0.9863945578231292, 0.006802721088435374, 0.0, 0.0, 0.006802721088435374, 0.0]], [[0.875, 0.125, 0.0, 0.0, 0.0, 0.0]], [[1.0, 0.0, 0.0, 0.0, 0.0, 0.0]], [[0.0, 1.0, 0.0, 0.0, 0.0, 0.0]], [[0.9928057553956835, 0.0, 0.0, 0.0, 0.007194244604316547, 0.0]], [[0.9411764705882353, 0.0, 0.0, 0.0, 0.058823529411764705, 0.0]], [[0.0, 0.0, 0.0, 0.0, 1.0, 0.0]], [[1.0, 0.0, 0.0, 0.0, 0.0, 0.0]], [[1.0, 0.0, 0.0, 0.0, 0.0, 0.0]], [[0.2857142857142857, 0.5714285714285714, 0.0, 0.14285714285714285, 0.0, 0.0]], [[0.0, 1.0, 0.0, 0.0, 0.0, 0.0]], [[0.6666666666666666, 0.0, 0.0, 0.3333333333333333, 0.0, 0.0]], [[1.0, 0.0, 0.0, 0.0, 0.0, 0.0]], [[0.0, 0.0, 0.0, 1.0, 0.0, 0.0]], [[0.0, 0.0, 0.0, 0.0, 0.0, 1.0]]]}, {"children_left": [1, 2, -1, 4, 5, -1, -1, 8, 9, 10, -1, 12, -1, 14, -1, 16, -1, -1, -1, 20, 21, -1, 23, -1, -1, 26, 27, -1, -1, 30, 31, 32, -1, -1, -1, 36, -1, 38, -1, -1, -1], "children_right": [40, 3, -1, 7, 6, -1, -1, 19, 18, 11, -1, 13, -1, 15, -1, 17, -1, -1, -1, 25, 22, -1, 24, -1, -1, 29, 28, -1, -1, 35, 34, 33, -1, -1, -1, 37, -1, 39, -1, -1, -1], "feature": [7, 35, -2, 30, 35, -2, -2, 31, 40, 23, -2, 17, -2, 23, -2, 38, -2, -2, -2, 22, 34, -2, 6, -2, -2, 21, 34, -2, -2, 27, 27, 38, -2, -2, -2, 16, -2, 30, -2, -2, -2], "threshold": [0.2135345432907343, -0.5441738665103912, -2.0, -0.7651891112327576, -0.1434906804934144, -2.0, -2.0, -0.8360439240932465, 0.21989142894744873, -0.8906371295452118, -2.0, -0.9036315977573395, -2.0, -0.8273428678512573, -2.0, -0.05103428289294243, -2.0, -2.0, -2.0, -0.16842015832662582, -0.057273595593869686, -2.0, -0.42652954161167145, -2.0, -2.0, -0.7478645145893097, 0.008156545460224152, -2.0, -2.0, -0.39036567509174347, -0.46343809366226196, -0.034445859491825104, -2.0, -2.0, -2.0, -0.15486114844679832, -2.0, 0.4814784526824951, -2.0, -2.0, -2.0], "value": [[[0.165625, 0.14479166666666668, 0.17604166666666668, 0.15, 0.190625, 0.17291666666666666]], [[0.20025188916876574, 0.17506297229219145, 0.2128463476070529, 0.181360201511335, 0.2304785894206549, 0.0]], [[0.0, 0.0, 1.0, 0.0, 0.0, 0.0]], [[0.2531847133757962, 0.2213375796178344, 0.004777070063694267, 0.22929936305732485, 0.2914012738853503, 0.0]], [[0.007751937984496124, 0.9922480620155039, 0.0, 0.0, 0.0, 0.0]], [[1.0, 0.0, 0.0, 0.0, 0.0, 0.0]], [[0.0, 1.0, 0.0, 0.0, 0.0, 0.0]], [[0.3166332665330661, 0.022044088176352707, 0.006012024048096192, 0.28857715430861725, 0.3667334669338677, 0.0]], [[0.012903225806451613, 0.012903225806451613, 0.012903225806451613, 0.9096774193548387, 0.05161290322580645, 0.0]], [[0.013605442176870748, 0.013605442176870748, 0.013605442176870748, 0.9591836734693877, 0.0, 0.0]], [[0.0, 0.0, 1.0, 0.0, 0.0, 0.0]], [[0.013793103448275862, 0.013793103448275862, 0.0, 0.9724137931034482, 0.0, 0.0]], [[1.0, 0.0, 0.0, 0.0, 0.0, 0.0]], [[0.0, 0.013986013986013986, 0.0, 0.986013986013986, 0.0, 0.0]], [[0.0, 0.0, 0.0, 1.0, 0.0, 0.0]], [[0.0, 0.18181818181818182, 0.0, 0.8181818181818182, 0.0, 0.0]], [[0.0, 1.0, 0.0, 0.0, 0.0, 0.0]], [[0.0, 0.0, 0.0, 1.0, 0.0, 0.0]], [[0.0, 0.0, 0.0, 0.0, 1.0, 0.0]], [[0.45348837209302323, 0.02616279069767442, 0.0029069767441860465, 0.00872093023255814, 0.5087209302325582, 0.0]], [[0.01694915254237288, 0.0, 0.0, 0.005649717514124294, 0.9774011299435028, 0.0]], [[0.0, 0.0, 0.0, 0.0, 1.0, 0.0]], [[0.75, 0.0, 0.0, 0.25, 0.0, 0.0]], [[1.0, 0.0, 0.0, 0.0, 0.0, 0.0]], [[0.0, 0.0, 0.0, 1.0, 0.0, 0.0]], [[0.9161676646706587, 0.05389221556886228, 0.005988023952095809, 0.011976047904191617, 0.011976047904191617, 0.0]], [[0.0, 0.8, 0.2, 0.0, 0.0, 0.0]], [[0.0, 0.0, 1.0, 0.0, 0.0, 0.0]], [[0.0, 1.0, 0.0, 0.0, 0.0, 0.0]], [[0.9444444444444444, 0.030864197530864196, 0.0, 0.012345679012345678, 0.012345679012345678, 0.0]], [[0.9867549668874173, 0.0, 0.0, 0.0, 0.013245033112582781, 0.0]], [[0.8666666666666667, 0.0, 0.0, 0.0, 0.13333333333333333, 0.0]], [[1.0, 0.0, 0.0, 0.0, 0.0, 0.0]], [[0.0, 0.0, 0.0, 0.0, 1.0, 0.0]], [[1.0, 0.0, 0.0, 0.0, 0.0, 0.0]], [[0.36363636363636365, 0.45454545454545453, 0.0, 0.18181818181818182, 0.0, 0.0]], [[0.0, 1.0, 0.0, 0.0, 0.0, 0.0]], [[0.6666666666666666, 0.0, 0.0, 0.3333333333333333, 0.0, 0.0]], [[1.0, 0.0, 0.0, 0.0, 0.0, 0.0]], [[0.0, 0.0, 0.0, 1.0, 0.0, 0.0]], [[0.0, 0.0, 0.0, 0.0, 0.0, 1.0]]]}, {"children_left": [1, 2, 3, -1, -1, 6, 7, 8, 9, -1, -1, -1, 13, -1, 15, -1, -1, 18, 19, -1, -1, 22, -1, 24, 25, -1, -1, 28, 29, -1, -1, 32, 33, 34, -1, -1, 37, -1, 39, -1, -1, -1, -1], "children_right": [42, 5, 4, -1, -1, 17, 12, 11, 10, -1, -1, -1, 14, -1, 16, -1, -1, 21, 20, -1, -1, 23, -1, 27, 26, -1, -1, 31, 30, -1, -1, 41, 36, 35, -1, -1, 38, -1, 40, -1, -1, -1, -1], "feature": [27, 35, 3, -2, -2, 29, 9, 19, 9, -2, -2, -2, 35, -2, 37, -2, -2, 4, 17, -2, -2, 22, -2, 3, 17, -2, -2, 2, 19, -2, -2, 29, 23, 33, -2, -2, 27, -2, 33, -2, -2, -2, -2], "threshold": [0.18345364555716515, -0.5441738665103912, -0.05121601186692715, -2.0, -2.0, -0.6971356570720673, -0.3011011928319931, -0.5314217209815979, -0.5195711553096771, -2.0, -2.0, -2.0, -0.457561194896698, -2.0, -0.6338822841644287, -2.0, -2.0, -0.34890395402908325, -0.42909182608127594, -2.0, -2.0, -0.17309922724962234, -2.0, -0.15611320734024048, -0.5960955759510398, -2.0, -2.0, -0.1426364704966545, -0.42771540582180023, -2.0, -2.0, -0.5957210063934326, -0.877267450094223, -0.9375016093254089, -2.0, -2.0, -0.38386674225330353, -2.0, -0.9091010391712189, -2.0, -2.0, -2.0, -2.0], "value": [[[0.16145833333333334, 0.15520833333333334, 0.16666666666666666, 0.16354166666666667, 0.18333333333333332, 0.16979166666666667]], [[0.1944792973651192, 0.18695106649937265, 0.20075282308657466, 0.19698870765370138, 0.22082810539523212, 0.0]], [[0.0, 0.0, 0.9873417721518988, 0.012658227848101266, 0.0, 0.0]], [[0.0, 0.0, 1.0, 0.0, 0.0, 0.0]], [[0.0, 0.0, 0.0, 1.0, 0.0, 0.0]], [[0.24256651017214398, 0.23317683881064163, 0.006259780907668232, 0.24256651017214398, 0.27543035993740217, 0.0]], [[0.011764705882352941, 0.0058823529411764705, 0.023529411764705882, 0.9058823529411765, 0.052941176470588235, 0.0]], [[0.13333333333333333, 0.0, 0.26666666666666666, 0.0, 0.6, 0.0]], [[0.3333333333333333, 0.0, 0.6666666666666666, 0.0, 0.0, 0.0]], [[1.0, 0.0, 0.0, 0.0, 0.0, 0.0]], [[0.0, 0.0, 1.0, 0.0, 0.0, 0.0]], [[0.0, 0.0, 0.0, 0.0, 1.0, 0.0]], [[0.0, 0.0064516129032258064, 0.0, 0.9935483870967742, 0.0, 0.0]], [[0.0, 0.0, 0.0, 1.0, 0.0, 0.0]], [[0.0, 0.038461538461538464, 0.0, 0.9615384615384616, 0.0, 0.0]], [[0.0, 1.0, 0.0, 0.0, 0.0, 0.0]], [[0.0, 0.0, 0.0, 1.0, 0.0, 0.0]], [[0.326226012793177, 0.31556503198294245, 0.0, 0.0021321961620469083, 0.35607675906183367, 0.0]], [[0.020833333333333332, 0.9791666666666666, 0.0, 0.0, 0.0, 0.0]], [[0.0, 1.0, 0.0, 0.0, 0.0, 0.0]], [[1.0, 0.0, 0.0, 0.0, 0.0, 0.0]], [[0.46153846153846156, 0.021538461538461538, 0.0, 0.003076923076923077, 0.5138461538461538, 0.0]], [[0.0, 0.0, 0.0, 0.0, 1.0, 0.0]], [[0.9433962264150944, 0.0440251572327044, 0.0, 0.006289308176100629, 0.006289308176100629, 0.0]], [[0.0, 0.6666666666666666, 0.0, 0.3333333333333333, 0.0, 0.0]], [[0.0, 1.0, 0.0, 0.0, 0.0, 0.0]], [[0.0, 0.0, 0.0, 1.0, 0.0, 0.0]], [[0.9615384615384616, 0.03205128205128205, 0.0, 0.0, 0.00641025641025641, 0.0]], [[0.3333333333333333, 0.6666666666666666, 0.0, 0.0, 0.0, 0.0]], [[0.0, 1.0, 0.0, 0.0, 0.0, 0.0]], [[1.0, 0.0, 0.0, 0.0, 0.0, 0.0]], [[0.9738562091503268, 0.0196078431372549, 0.0, 0.0, 0.006535947712418301, 0.0]], [[0.9867549668874173, 0.006622516556291391, 0.0, 0.0, 0.006622516556291391, 0.0]], [[0.8, 0.0, 0.0, 0.0, 0.2, 0.0]], [[1.0, 0.0, 0.0, 0.0, 0.0, 0.0]], [[0.0, 0.0, 0.0, 0.0, 1.0, 0.0]], [[0.9931506849315068, 0.00684931506849315, 0.0, 0.0, 0.0, 0.0]], [[1.0, 0.0, 0.0, 0.0, 0.0, 0.0]], [[0.8, 0.2, 0.0, 0.0, 0.0, 0.0]], [[0.0, 1.0, 0.0, 0.0, 0.0, 0.0]], [[1.0, 0.0, 0.0, 0.0, 0.0, 0.0]], [[0.0, 1.0, 0.0, 0.0, 0.0, 0.0]], [[0.0, 0.0, 0.0, 0.0, 0.0, 1.0]]]}, {"children_left": [1, 2, -1, 4, 5, 6, 7, -1, -1, -1, 11, -1, -1, 14, 15, 16, 17, 18, -1, -1, -1, 22, -1, -1, 25, -1, -1, 28, 29, 30, -1, -1, 33, 34, -1, -1, -1, 38, 39, 40, -1, 42, 43, -1, 45, -1, -1, -1, 49, 50, -1, -1, -1, 54, -1, -1, -1], "children_right": [56, 3, -1, 13, 10, 9, 8, -1, -1, -1, 12, -1, -1, 27, 24, 21, 20, 19, -1, -1, -1, 23, -1, -1, 26, -1, -1, 37, 32, 31, -1, -1, 36, 35, -1, -1, -1, 53, 48, 41, -1, 47, 44, -1, 46, -1, -1, -1, 52, 51, -1, -1, -1, 55, -1, -1, -1], "feature": [3, 26, -2, 33, 21, 3, 14, -2, -2, -2, 24, -2, -2, 29, 7, 19, 31, 32, -2, -2, -2, 32, -2, -2, 13, -2, -2, 24, 6, 40, -2, -2, 15, 14, -2, -2, -2, 41, 3, 17, -2, 18, 12, -2, 7, -2, -2, -2, 28, 3, -2, -2, -2, 17, -2, -2, -2], "threshold": [0.06879266165196896, -0.45357295870780945, -2.0, -0.9545182585716248, -0.6716775894165039, -0.04709064029157162, -0.14127619564533234, -2.0, -2.0, -2.0, 0.03972117602825165, -2.0, -2.0, -0.6973572075366974, -0.33764421939849854, -0.7141579985618591, -1.0982430577278137, 0.2785359025001526, -2.0, -2.0, -2.0, -0.3118806853890419, -2.0, -2.0, -0.6526017487049103, -2.0, -2.0, -0.16359815001487732, -0.5402415990829468, -0.8474282324314117, -2.0, -2.0, -0.6988247334957123, -0.10862931981682777, -2.0, -2.0, -2.0, -0.5239640176296234, -0.04751362279057503, -1.104261577129364, -2.0, -0.05662892013788223, -0.17102880775928497, -2.0, -0.3141431510448456, -2.0, -2.0, -2.0, 0.05647689290344715, -0.04660642519593239, -2.0, -2.0, -2.0, -0.464074625633657, -2.0, -2.0, -2.0], "value": [[[0.15520833333333334, 0.17604166666666668, 0.16354166666666667, 0.16979166666666667, 0.15729166666666666, 0.178125]], [[0.1888466413181242, 0.21419518377693283, 0.19898605830164764, 0.20659062103929024, 0.19138149556400508, 0.0]], [[0.0, 1.0, 0.0, 0.0, 0.0, 0.0]], [[0.2353870458135861, 0.020537124802527645, 0.2480252764612954, 0.2575039494470774, 0.23854660347551343, 0.0]], [[0.03571428571428571, 0.005952380952380952, 0.0, 0.9226190476190477, 0.03571428571428571, 0.0]], [[0.03636363636363636, 0.0, 0.0, 0.9393939393939394, 0.024242424242424242, 0.0]], [[0.6, 0.0, 0.0, 0.0, 0.4, 0.0]], [[0.0, 0.0, 0.0, 0.0, 1.0, 0.0]], [[1.0, 0.0, 0.0, 0.0, 0.0, 0.0]], [[0.0, 0.0, 0.0, 1.0, 0.0, 0.0]], [[0.0, 0.3333333333333333, 0.0, 0.0, 0.6666666666666666, 0.0]], [[0.0, 0.0, 0.0, 0.0, 1.0, 0.0]], [[0.0, 1.0, 0.0, 0.0, 0.0, 0.0]], [[0.30752688172043013, 0.025806451612903226, 0.33763440860215055, 0.017204301075268817, 0.3118279569892473, 0.0]], [[0.018072289156626505, 0.0, 0.9457831325301205, 0.030120481927710843, 0.006024096385542169, 0.0]], [[0.018633540372670808, 0.0, 0.9751552795031055, 0.006211180124223602, 0.0, 0.0]], [[0.0, 0.0, 0.993421052631579, 0.006578947368421052, 0.0, 0.0]], [[0.0, 0.0, 0.5, 0.5, 0.0, 0.0]], [[0.0, 0.0, 0.0, 1.0, 0.0, 0.0]], [[0.0, 0.0, 1.0, 0.0, 0.0, 0.0]], [[0.0, 0.0, 1.0, 0.0, 0.0, 0.0]], [[0.3333333333333333, 0.0, 0.6666666666666666, 0.0, 0.0, 0.0]], [[1.0, 0.0, 0.0, 0.0, 0.0, 0.0]], [[0.0, 0.0, 1.0, 0.0, 0.0, 0.0]], [[0.0, 0.0, 0.0, 0.8, 0.2, 0.0]], [[0.0, 0.0, 0.0, 0.0, 1.0, 0.0]], [[0.0, 0.0, 0.0, 1.0, 0.0, 0.0]], [[0.4682274247491639, 0.04013377926421405, 0.0, 0.010033444816053512, 0.4816053511705686, 0.0]], [[0.033112582781456956, 0.013245033112582781, 0.0, 0.013245033112582781, 0.9403973509933775, 0.0]], [[0.6666666666666666, 0.3333333333333333, 0.0, 0.0, 0.0, 0.0]], [[1.0, 0.0, 0.0, 0.0, 0.0, 0.0]], [[0.0, 1.0, 0.0, 0.0, 0.0, 0.0]], [[0.006896551724137931, 0.0, 0.0, 0.013793103448275862, 0.9793103448275862, 0.0]], [[0.006993006993006993, 0.0, 0.0, 0.0, 0.993006993006993, 0.0]], [[0.0, 0.0, 0.0, 0.0, 1.0, 0.0]], [[1.0, 0.0, 0.0, 0.0, 0.0, 0.0]], [[0.0, 0.0, 0.0, 1.0, 0.0, 0.0]], [[0.9121621621621622, 0.06756756756756757, 0.0, 0.006756756756756757, 0.013513513513513514, 0.0]], [[0.9507042253521126, 0.035211267605633804, 0.0, 0.0, 0.014084507042253521, 0.0]], [[0.975609756097561, 0.016260162601626018, 0.0, 0.0, 0.008130081300813009, 0.0]], [[0.0, 1.0, 0.0, 0.0, 0.0, 0.0]], [[0.9836065573770492, 0.00819672131147541, 0.0, 0.0, 0.00819672131147541, 0.0]], [[0.8947368421052632, 0.05263157894736842, 0.0, 0.0, 0.05263157894736842, 0.0]], [[1.0, 0.0, 0.0, 0.0, 0.0, 0.0]], [[0.0, 0.5, 0.0, 0.0, 0.5, 0.0]], [[0.0, 0.0, 0.0, 0.0, 1.0, 0.0]], [[0.0, 1.0, 0.0, 0.0, 0.0, 0.0]], [[1.0, 0.0, 0.0, 0.0, 0.0, 0.0]], [[0.7894736842105263, 0.15789473684210525, 0.0, 0.0, 0.05263157894736842, 0.0]], [[0.9375, 0.0, 0.0, 0.0, 0.0625, 0.0]], [[0.0, 0.0, 0.0, 0.0, 1.0, 0.0]], [[1.0, 0.0, 0.0, 0.0, 0.0, 0.0]], [[0.0, 1.0, 0.0, 0.0, 0.0, 0.0]], [[0.0, 0.8333333333333334, 0.0, 0.16666666666666666, 0.0, 0.0]], [[0.0, 1.0, 0.0, 0.0, 0.0, 0.0]], [[0.0, 0.0, 0.0, 1.0, 0.0, 0.0]], [[0.0, 0.0, 0.0, 0.0, 0.0, 1.0]]]}, {"children_left": [1, 2, 3, 4, -1, -1, -1, 8, 9, 10, -1, -1, -1, 14, 15, 16, -1, -1, 19, -1, -1, 22, 23, -1, -1, 26, 27, 28, -1, 30, -1, -1, 33, 34, -1, -1, -1, -1, -1], "children_right": [38, 7, 6, 5, -1, -1, -1, 13, 12, 11, -1, -1, -1, 21, 18, 17, -1, -1, 20, -1, -1, 25, 24, -1, -1, 37, 32, 29, -1, 31, -1, -1, 36, 35, -1, -1, -1, -1, -1], "feature": [19, 15, 19, 23, -2, -2, -2, 31, 19, 5, -2, -2, -2, 20, 6, 35, -2, -2, 10, -2, -2, 3, 8, -2, -2, 41, 19, 18, -2, 19, -2, -2, 14, 39, -2, -2, -2, -2, -2], "threshold": [0.13496246747672558, -1.047352910041809, -0.6868607997894287, -1.130026638507843, -2.0, -2.0, -2.0, -0.8360439240932465, -0.517995148897171, -0.1848948523402214, -2.0, -2.0, -2.0, -0.1452600061893463, -0.4949139356613159, -0.2131596803665161, -2.0, -2.0, -0.2904937416315079, -2.0, -2.0, -0.15611320734024048, 0.10293424129486084, -2.0, -2.0, -0.5223695039749146, -0.5014370381832123, -0.06261064298450947, -2.0, -0.5231423676013947, -2.0, -2.0, -0.2632293254137039, -0.5944216549396515, -2.0, -2.0, -2.0, -2.0, -2.0], "value": [[[0.17395833333333333, 0.13333333333333333, 0.15833333333333333, 0.153125, 0.175, 0.20625]], [[0.21916010498687663, 0.1679790026246719, 0.1994750656167979, 0.19291338582677164, 0.2204724409448819, 0.0]], [[0.0, 0.01935483870967742, 0.9741935483870968, 0.0064516129032258064, 0.0, 0.0]], [[0.0, 0.0, 0.993421052631579, 0.006578947368421052, 0.0, 0.0]], [[0.0, 0.0, 0.0, 1.0, 0.0, 0.0]], [[0.0, 0.0, 1.0, 0.0, 0.0, 0.0]], [[0.0, 1.0, 0.0, 0.0, 0.0, 0.0]], [[0.2751235584843493, 0.20593080724876442, 0.0016474464579901153, 0.24052718286655683, 0.27677100494233936, 0.0]], [[0.0, 0.0, 0.0, 0.9861111111111112, 0.013888888888888888, 0.0]], [[0.0, 0.0, 0.0, 0.9534883720930233, 0.046511627906976744, 0.0]], [[0.0, 0.0, 0.0, 0.0, 1.0, 0.0]], [[0.0, 0.0, 0.0, 1.0, 0.0, 0.0]], [[0.0, 0.0, 0.0, 1.0, 0.0, 0.0]], [[0.36069114470842334, 0.26997840172786175, 0.0021598272138228943, 0.008639308855291577, 0.35853131749460043, 0.0]], [[0.013888888888888888, 0.4097222222222222, 0.0, 0.010416666666666666, 0.5659722222222222, 0.0]], [[0.03278688524590164, 0.9672131147540983, 0.0, 0.0, 0.0, 0.0]], [[1.0, 0.0, 0.0, 0.0, 0.0, 0.0]], [[0.0, 1.0, 0.0, 0.0, 0.0, 0.0]], [[0.0, 0.0, 0.0, 0.018072289156626505, 0.9819277108433735, 0.0]], [[0.0, 0.0, 0.0, 1.0, 0.0, 0.0]], [[0.0, 0.0, 0.0, 0.0, 1.0, 0.0]], [[0.9314285714285714, 0.04, 0.005714285714285714, 0.005714285714285714, 0.017142857142857144, 0.0]], [[0.0, 0.6666666666666666, 0.0, 0.3333333333333333, 0.0, 0.0]], [[0.0, 1.0, 0.0, 0.0, 0.0, 0.0]], [[0.0, 0.0, 0.0, 1.0, 0.0, 0.0]], [[0.9476744186046512, 0.029069767441860465, 0.005813953488372093, 0.0, 0.01744186046511628, 0.0]], [[0.9588235294117647, 0.01764705882352941, 0.0058823529411764705, 0.0, 0.01764705882352941, 0.0]], [[0.6363636363636364, 0.0, 0.09090909090909091, 0.0, 0.2727272727272727, 0.0]], [[0.0, 0.0, 0.0, 0.0, 1.0, 0.0]], [[0.875, 0.0, 0.125, 0.0, 0.0, 0.0]], [[0.0, 0.0, 1.0, 0.0, 0.0, 0.0]], [[1.0, 0.0, 0.0, 0.0, 0.0, 0.0]], [[0.9811320754716981, 0.018867924528301886, 0.0, 0.0, 0.0, 0.0]], [[0.7692307692307693, 0.23076923076923078, 0.0, 0.0, 0.0, 0.0]], [[1.0, 0.0, 0.0, 0.0, 0.0, 0.0]], [[0.0, 1.0, 0.0, 0.0, 0.0, 0.0]], [[1.0, 0.0, 0.0, 0.0, 0.0, 0.0]], [[0.0, 1.0, 0.0, 0.0, 0.0, 0.0]], [[0.0, 0.0, 0.0, 0.0, 0.0, 1.0]]]}, {"children_left": [1, 2, 3, -1, 5, -1, -1, 8, 9, 10, -1, -1, -1, 14, 15, 16, -1, -1, 19, -1, -1, 22, 23, -1, -1, 26, 27, -1, -1, 30, 31, -1, 33, 34, -1, 36, -1, 38, 39, -1, 41, -1, -1, 44, -1, -1, -1, -1, -1], "children_right": [48, 7, 4, -1, 6, -1, -1, 13, 12, 11, -1, -1, -1, 21, 18, 17, -1, -1, 20, -1, -1, 25, 24, -1, -1, 29, 28, -1, -1, 47, 32, -1, 46, 35, -1, 37, -1, 43, 40, -1, 42, -1, -1, 45, -1, -1, -1, -1, -1], "feature": [3, 27, 9, -2, 23, -2, -2, 6, 5, 37, -2, -2, -2, 37, 3, 38, -2, -2, 15, -2, -2, 20, 6, -2, -2, 27, 2, -2, -2, 10, 2, -2, 41, 13, -2, 8, -2, 37, 41, -2, 3, -2, -2, 2, -2, -2, -2, -2, -2], "threshold": [0.06867370009422302, -0.6436666250228882, -0.6242527365684509, -2.0, -0.9254326224327087, -2.0, -2.0, -0.492450475692749, -0.3284068703651428, -0.19876272231340408, -2.0, -2.0, -2.0, -0.5820488333702087, -0.05548125319182873, -0.2253381758928299, -2.0, -2.0, -0.6479083597660065, -2.0, -2.0, -0.15613417327404022, -0.45824675261974335, -2.0, -2.0, -0.4908227026462555, 0.009065810590982437, -2.0, -2.0, 0.35321739315986633, -0.1533663645386696, -2.0, -0.5223695039749146, -0.8149686455726624, -2.0, -0.5066848695278168, -2.0, -0.4192500412464142, -0.6290196180343628, -2.0, -0.09977777302265167, -2.0, -2.0, -0.1315336674451828, -2.0, -2.0, -2.0, -2.0, -2.0], "value": [[[0.15104166666666666, 0.17604166666666668, 0.17291666666666666, 0.15416666666666667, 0.140625, 0.20520833333333333]], [[0.19003931847968544, 0.2214941022280472, 0.21756225425950196, 0.19397116644823068, 0.17693315858453473, 0.0]], [[0.0, 0.0, 0.9877300613496932, 0.012269938650306749, 0.0, 0.0]], [[0.0, 0.0, 1.0, 0.0, 0.0, 0.0]], [[0.0, 0.0, 0.5, 0.5, 0.0, 0.0]], [[0.0, 0.0, 0.0, 1.0, 0.0, 0.0]], [[0.0, 0.0, 1.0, 0.0, 0.0, 0.0]], [[0.24166666666666667, 0.2816666666666667, 0.008333333333333333, 0.24333333333333335, 0.225, 0.0]], [[0.011976047904191617, 0.9820359281437125, 0.0, 0.0, 0.005988023952095809, 0.0]], [[0.012048192771084338, 0.9879518072289156, 0.0, 0.0, 0.0, 0.0]], [[1.0, 0.0, 0.0, 0.0, 0.0, 0.0]], [[0.0, 1.0, 0.0, 0.0, 0.0, 0.0]], [[0.0, 0.0, 0.0, 0.0, 1.0, 0.0]], [[0.3302540415704388, 0.011547344110854504, 0.011547344110854504, 0.3371824480369515, 0.3094688221709007, 0.0]], [[0.0064516129032258064, 0.0064516129032258064, 0.0, 0.9354838709677419, 0.05161290322580645, 0.0]], [[0.1111111111111111, 0.0, 0.0, 0.0, 0.8888888888888888, 0.0]], [[1.0, 0.0, 0.0, 0.0, 0.0, 0.0]], [[0.0, 0.0, 0.0, 0.0, 1.0, 0.0]], [[0.0, 0.00684931506849315, 0.0, 0.9931506849315068, 0.0, 0.0]], [[0.0, 0.0, 0.0, 1.0, 0.0, 0.0]], [[0.0, 1.0, 0.0, 0.0, 0.0, 0.0]], [[0.5107913669064749, 0.014388489208633094, 0.017985611510791366, 0.0035971223021582736, 0.45323741007194246, 0.0]], [[0.008264462809917356, 0.0, 0.0, 0.0, 0.9917355371900827, 0.0]], [[1.0, 0.0, 0.0, 0.0, 0.0, 0.0]], [[0.0, 0.0, 0.0, 0.0, 1.0, 0.0]], [[0.8980891719745223, 0.025477707006369428, 0.03184713375796178, 0.006369426751592357, 0.03821656050955414, 0.0]], [[0.0, 0.0, 0.625, 0.0, 0.375, 0.0]], [[0.0, 0.0, 0.0, 0.0, 1.0, 0.0]], [[0.0, 0.0, 1.0, 0.0, 0.0, 0.0]], [[0.9463087248322147, 0.026845637583892617, 0.0, 0.006711409395973154, 0.020134228187919462, 0.0]], [[0.9527027027027027, 0.02702702702702703, 0.0, 0.0, 0.02027027027027027, 0.0]], [[0.0, 0.0, 0.0, 0.0, 1.0, 0.0]], [[0.9657534246575342, 0.0273972602739726, 0.0, 0.0, 0.00684931506849315, 0.0]], [[0.9724137931034482, 0.020689655172413793, 0.0, 0.0, 0.006896551724137931, 0.0]], [[0.0, 1.0, 0.0, 0.0, 0.0, 0.0]], [[0.9791666666666666, 0.013888888888888888, 0.0, 0.0, 0.006944444444444444, 0.0]], [[0.0, 1.0, 0.0, 0.0, 0.0, 0.0]], [[0.986013986013986, 0.006993006993006993, 0.0, 0.0, 0.006993006993006993, 0.0]], [[0.9922480620155039, 0.0, 0.0, 0.0, 0.007751937984496124, 0.0]], [[1.0, 0.0, 0.0, 0.0, 0.0, 0.0]], [[0.9166666666666666, 0.0, 0.0, 0.0, 0.08333333333333333, 0.0]], [[1.0, 0.0, 0.0, 0.0, 0.0, 0.0]], [[0.0, 0.0, 0.0, 0.0, 1.0, 0.0]], [[0.9285714285714286, 0.07142857142857142, 0.0, 0.0, 0.0, 0.0]], [[0.0, 1.0, 0.0, 0.0, 0.0, 0.0]], [[1.0, 0.0, 0.0, 0.0, 0.0, 0.0]], [[0.0, 1.0, 0.0, 0.0, 0.0, 0.0]], [[0.0, 0.0, 0.0, 1.0, 0.0, 0.0]], [[0.0, 0.0, 0.0, 0.0, 0.0, 1.0]]]}, {"children_left": [1, -1, 3, 4, -1, 6, -1, -1, 9, 10, 11, 12, -1, -1, 15, -1, -1, 18, 19, -1, 21, -1, -1, 24, 25, 26, -1, -1, 29, 30, 31, 32, -1, -1, 35, 36, -1, -1, 39, 40, -1, -1, -1, -1, -1, -1, -1], "children_right": [2, -1, 8, 5, -1, 7, -1, -1, 46, 17, 14, 13, -1, -1, 16, -1, -1, 23, 20, -1, 22, -1, -1, 45, 28, 27, -1, -1, 44, 43, 34, 33, -1, -1, 38, 37, -1, -1, 42, 41, -1, -1, -1, -1, -1, -1, -1], "feature": [27, -2, 26, 3, -2, 2, -2, -2, 37, 35, 13, 6, -2, -2, 7, -2, -2, 22, 28, -2, 29, -2, -2, 32, 29, 8, -2, -2, 33, 37, 2, 38, -2, -2, 35, 32, -2, -2, 35, 36, -2, -2, -2, -2, -2, -2, -2], "threshold": [-0.6668026745319366, -2.0, -0.3746533989906311, -0.31427158415317535, -2.0, -0.18340979516506195, -2.0, -2.0, 0.3993299752473831, -0.43172305822372437, -0.6840827763080597, -0.3719882071018219, -2.0, -2.0, -0.27623578906059265, -2.0, -2.0, -0.16553669422864914, -0.5857776403427124, -2.0, -0.6857326328754425, -2.0, -2.0, 0.5661714151501656, -0.6973519623279572, 0.01124948263168335, -2.0, -2.0, -0.8478831946849823, -0.3659059405326843, -0.1426364704966545, 0.19591455906629562, -2.0, -2.0, -0.40909816324710846, 0.013797842431813478, -2.0, -2.0, -0.3902401477098465, -0.0406904686242342, -2.0, -2.0, -2.0, -2.0, -2.0, -2.0, -2.0], "value": [[[0.13854166666666667, 0.165625, 0.190625, 0.17083333333333334, 0.184375, 0.15]], [[0.0, 0.0, 1.0, 0.0, 0.0, 0.0]], [[0.17073170731707318, 0.20410783055198972, 0.0025673940949935813, 0.21052631578947367, 0.22721437740693196, 0.18485237483953787]], [[0.006535947712418301, 0.9934640522875817, 0.0, 0.0, 0.0, 0.0]], [[0.0, 1.0, 0.0, 0.0, 0.0, 0.0]], [[0.3333333333333333, 0.6666666666666666, 0.0, 0.0, 0.0, 0.0]], [[1.0, 0.0, 0.0, 0.0, 0.0, 0.0]], [[0.0, 1.0, 0.0, 0.0, 0.0, 0.0]], [[0.2108626198083067, 0.011182108626198083, 0.003194888178913738, 0.26198083067092653, 0.2827476038338658, 0.23003194888178913]], [[0.27385892116182575, 0.014522821576763486, 0.004149377593360996, 0.34024896265560167, 0.36721991701244816, 0.0]], [[0.017543859649122806, 0.0, 0.0, 0.9415204678362573, 0.04093567251461988, 0.0]], [[0.5, 0.0, 0.0, 0.0, 0.5, 0.0]], [[1.0, 0.0, 0.0, 0.0, 0.0, 0.0]], [[0.0, 0.0, 0.0, 0.0, 1.0, 0.0]], [[0.0, 0.0, 0.0, 0.9757575757575757, 0.024242424242424242, 0.0]], [[0.0, 0.0, 0.0, 0.0, 1.0, 0.0]], [[0.0, 0.0, 0.0, 1.0, 0.0, 0.0]], [[0.41479099678456594, 0.022508038585209004, 0.006430868167202572, 0.00964630225080386, 0.5466237942122186, 0.0]], [[0.0, 0.005988023952095809, 0.0, 0.005988023952095809, 0.9880239520958084, 0.0]], [[0.0, 1.0, 0.0, 0.0, 0.0, 0.0]], [[0.0, 0.0, 0.0, 0.006024096385542169, 0.9939759036144579, 0.0]], [[0.0, 0.0, 0.0, 1.0, 0.0, 0.0]], [[0.0, 0.0, 0.0, 0.0, 1.0, 0.0]], [[0.8958333333333334, 0.041666666666666664, 0.013888888888888888, 0.013888888888888888, 0.034722222222222224, 0.0]], [[0.9084507042253521, 0.04225352112676056, 0.014084507042253521, 0.0, 0.035211267605633804, 0.0]], [[0.0, 0.0, 0.4, 0.0, 0.6, 0.0]], [[0.0, 0.0, 0.0, 0.0, 1.0, 0.0]], [[0.0, 0.0, 1.0, 0.0, 0.0, 0.0]], [[0.9416058394160584, 0.043795620437956206, 0.0, 0.0, 0.014598540145985401, 0.0]], [[0.9555555555555556, 0.02962962962962963, 0.0, 0.0, 0.014814814814814815, 0.0]], [[0.9626865671641791, 0.022388059701492536, 0.0, 0.0, 0.014925373134328358, 0.0]], [[0.4, 0.6, 0.0, 0.0, 0.0, 0.0]], [[1.0, 0.0, 0.0, 0.0, 0.0, 0.0]], [[0.0, 1.0, 0.0, 0.0, 0.0, 0.0]], [[0.9844961240310077, 0.0, 0.0, 0.0, 0.015503875968992248, 0.0]], [[0.5, 0.0, 0.0, 0.0, 0.5, 0.0]], [[0.0, 0.0, 0.0, 0.0, 1.0, 0.0]], [[1.0, 0.0, 0.0, 0.0, 0.0, 0.0]], [[0.9921259842519685, 0.0, 0.0, 0.0, 0.007874015748031496, 0.0]], [[0.9473684210526315, 0.0, 0.0, 0.0, 0.05263157894736842, 0.0]], [[1.0, 0.0, 0.0, 0.0, 0.0, 0.0]], [[0.0, 0.0, 0.0, 0.0, 1.0, 0.0]], [[1.0, 0.0, 0.0, 0.0, 0.0, 0.0]], [[0.0, 1.0, 0.0, 0.0, 0.0, 0.0]], [[0.0, 1.0, 0.0, 0.0, 0.0, 0.0]], [[0.0, 0.0, 0.0, 1.0, 0.0, 0.0]], [[0.0, 0.0, 0.0, 0.0, 0.0, 1.0]]]}, {"children_left": [1, 2, 3, 4, -1, 6, -1, -1, 9, -1, -1, 12, 13, 14, -1, 16, -1, -1, -1, 20, -1, 22, -1, 24, 25, -1, 27, -1, -1, -1, -1], "children_right": [30, 11, 8, 5, -1, 7, -1, -1, 10, -1, -1, 19, 18, 15, -1, 17, -1, -1, -1, 21, -1, 23, -1, 29, 26, -1, 28, -1, -1, -1, -1], "feature": [23, 33, 35, 3, -2, 33, -2, -2, 33, -2, -2, 27, 9, 27, -2, 10, -2, -2, -2, 22, -2, 22, -2, 20, 27, -2, 20, -2, -2, -2, -2], "threshold": [0.266465499997139, -0.9548095166683197, -0.42644956707954407, -0.05548125319182873, -2.0, -1.0182284712791443, -2.0, -2.0, -0.9706728160381317, -2.0, -2.0, -0.513799786567688, -0.3437098115682602, -0.7048945128917694, -2.0, -0.0632762499153614, -2.0, -2.0, -2.0, -0.7116765677928925, -2.0, -0.16937658935785294, -2.0, -0.030101299285888672, -0.45803704857826233, -2.0, -0.037086887285113335, -2.0, -2.0, -2.0, -2.0], "value": [[[0.15625, 0.1625, 0.15833333333333333, 0.1875, 0.178125, 0.15729166666666666]], [[0.18541409147095178, 0.19283065512978986, 0.18788627935723115, 0.22249690976514216, 0.21137206427688504, 0.0]], [[0.031578947368421054, 0.005263157894736842, 0.0, 0.9368421052631579, 0.02631578947368421, 0.0]], [[0.0, 0.00546448087431694, 0.0, 0.9726775956284153, 0.02185792349726776, 0.0]], [[0.0, 0.0, 0.0, 0.0, 1.0, 0.0]], [[0.0, 0.00558659217877095, 0.0, 0.994413407821229, 0.0, 0.0]], [[0.0, 1.0, 0.0, 0.0, 0.0, 0.0]], [[0.0, 0.0, 0.0, 1.0, 0.0, 0.0]], [[0.8571428571428571, 0.0, 0.0, 0.0, 0.14285714285714285, 0.0]], [[0.0, 0.0, 0.0, 0.0, 1.0, 0.0]], [[1.0, 0.0, 0.0, 0.0, 0.0, 0.0]], [[0.23263327948303716, 0.25040387722132473, 0.2455573505654281, 0.0032310177705977385, 0.2681744749596123, 0.0]], [[0.0064516129032258064, 0.0, 0.9806451612903225, 0.012903225806451613, 0.0, 0.0]], [[0.006535947712418301, 0.0, 0.9934640522875817, 0.0, 0.0, 0.0]], [[0.0, 0.0, 1.0, 0.0, 0.0, 0.0]], [[0.3333333333333333, 0.0, 0.6666666666666666, 0.0, 0.0, 0.0]], [[1.0, 0.0, 0.0, 0.0, 0.0, 0.0]], [[0.0, 0.0, 1.0, 0.0, 0.0, 0.0]], [[0.0, 0.0, 0.0, 1.0, 0.0, 0.0]], [[0.3081896551724138, 0.33405172413793105, 0.0, 0.0, 0.3577586206896552, 0.0]], [[0.0, 1.0, 0.0, 0.0, 0.0, 0.0]], [[0.45980707395498394, 0.006430868167202572, 0.0, 0.0, 0.5337620578778135, 0.0]], [[0.0, 0.0, 0.0, 0.0, 1.0, 0.0]], [[0.959731543624161, 0.013422818791946308, 0.0, 0.0, 0.026845637583892617, 0.0]], [[0.8846153846153846, 0.038461538461538464, 0.0, 0.0, 0.07692307692307693, 0.0]], [[0.0, 0.0, 0.0, 0.0, 1.0, 0.0]], [[0.9583333333333334, 0.041666666666666664, 0.0, 0.0, 0.0, 0.0]], [[1.0, 0.0, 0.0, 0.0, 0.0, 0.0]], [[0.0, 1.0, 0.0, 0.0, 0.0, 0.0]], [[1.0, 0.0, 0.0, 0.0, 0.0, 0.0]], [[0.0, 0.0, 0.0, 0.0, 0.0, 1.0]]]}, {"children_left": [1, -1, 3, 4, 5, -1, -1, 8, 9, -1, 11, -1, 13, -1, 15, 16, -1, -1, -1, 20, 21, 22, -1, 24, -1, -1, 27, 28, 29, -1, -1, 32, -1, 34, -1, -1, -1, 38, -1, -1, -1], "children_right": [2, -1, 40, 7, 6, -1, -1, 19, 10, -1, 12, -1, 14, -1, 18, 17, -1, -1, -1, 37, 26, 23, -1, 25, -1, -1, 36, 31, 30, -1, -1, 33, -1, 35, -1, -1, -1, 39, -1, -1, -1], "feature": [17, -2, 13, 22, 17, -2, -2, 29, 4, -2, 25, -2, 33, -2, 15, 38, -2, -2, -2, 29, 24, 9, -2, 24, -2, -2, 41, 31, 31, -2, -2, 40, -2, 8, -2, -2, -2, 27, -2, -2, -2], "threshold": [-1.352543294429779, -2.0, 0.2639818377792835, -0.7111149728298187, -0.37918293476104736, -2.0, -2.0, -0.6971356570720673, -0.34172849357128143, -2.0, -0.989850640296936, -2.0, -1.0194536447525024, -2.0, -0.7996572256088257, -0.05577618069946766, -2.0, -2.0, -2.0, -0.5840023159980774, -0.16359815001487732, -0.58953458070755, -2.0, -0.3268114924430847, -2.0, -2.0, -0.5223695039749146, -0.8303931355476379, -0.830917477607727, -2.0, -2.0, 0.2891608327627182, -2.0, -0.4634707421064377, -2.0, -2.0, -2.0, -0.03923703357577324, -2.0, -2.0, -2.0], "value": [[[0.16979166666666667, 0.16041666666666668, 0.18854166666666666, 0.171875, 0.159375, 0.15]], [[0.0, 0.0, 1.0, 0.0, 0.0, 0.0]], [[0.2092426187419769, 0.19768934531450577, 0.0, 0.21181001283697048, 0.196405648267009, 0.18485237483953787]], [[0.2566929133858268, 0.24251968503937008, 0.0, 0.25984251968503935, 0.2409448818897638, 0.0]], [[0.006711409395973154, 0.9932885906040269, 0.0, 0.0, 0.0, 0.0]], [[0.0, 1.0, 0.0, 0.0, 0.0, 0.0]], [[1.0, 0.0, 0.0, 0.0, 0.0, 0.0]], [[0.3333333333333333, 0.012345679012345678, 0.0, 0.3395061728395062, 0.3148148148148148, 0.0]], [[0.011494252873563218, 0.011494252873563218, 0.0, 0.9310344827586207, 0.04597701149425287, 0.0]], [[1.0, 0.0, 0.0, 0.0, 0.0, 0.0]], [[0.0, 0.011627906976744186, 0.0, 0.9418604651162791, 0.046511627906976744, 0.0]], [[0.0, 0.0, 0.0, 0.0, 1.0, 0.0]], [[0.0, 0.012048192771084338, 0.0, 0.9759036144578314, 0.012048192771084338, 0.0]], [[0.0, 1.0, 0.0, 0.0, 0.0, 0.0]], [[0.0, 0.0, 0.0, 0.9878048780487805, 0.012195121951219513, 0.0]], [[0.0, 0.0, 0.0, 0.3333333333333333, 0.6666666666666666, 0.0]], [[0.0, 0.0, 0.0, 0.0, 1.0, 0.0]], [[0.0, 0.0, 0.0, 1.0, 0.0, 0.0]], [[0.0, 0.0, 0.0, 1.0, 0.0, 0.0]], [[0.5128205128205128, 0.01282051282051282, 0.0, 0.009615384615384616, 0.46474358974358976, 0.0]], [[0.6837606837606838, 0.017094017094017096, 0.0, 0.008547008547008548, 0.2905982905982906, 0.0]], [[0.05555555555555555, 0.0, 0.0, 0.027777777777777776, 0.9166666666666666, 0.0]], [[1.0, 0.0, 0.0, 0.0, 0.0, 0.0]], [[0.0, 0.0, 0.0, 0.029411764705882353, 0.9705882352941176, 0.0]], [[0.0, 0.0, 0.0, 1.0, 0.0, 0.0]], [[0.0, 0.0, 0.0, 0.0, 1.0, 0.0]], [[0.9629629629629629, 0.024691358024691357, 0.0, 0.0, 0.012345679012345678, 0.0]], [[0.968944099378882, 0.018633540372670808, 0.0, 0.0, 0.012422360248447204, 0.0]], [[0.8, 0.0, 0.0, 0.0, 0.2, 0.0]], [[1.0, 0.0, 0.0, 0.0, 0.0, 0.0]], [[0.0, 0.0, 0.0, 0.0, 1.0, 0.0]], [[0.9801324503311258, 0.019867549668874173, 0.0, 0.0, 0.0, 0.0]], [[1.0, 0.0, 0.0, 0.0, 0.0, 0.0]], [[0.9361702127659575, 0.06382978723404255, 0.0, 0.0, 0.0, 0.0]], [[0.0, 1.0, 0.0, 0.0, 0.0, 0.0]], [[1.0, 0.0, 0.0, 0.0, 0.0, 0.0]], [[0.0, 1.0, 0.0, 0.0, 0.0, 0.0]], [[0.0, 0.0, 0.0, 0.01282051282051282, 0.9871794871794872, 0.0]], [[0.0, 0.0, 0.0, 0.0, 1.0, 0.0]], [[0.0, 0.0, 0.0, 1.0, 0.0, 0.0]], [[0.0, 0.0, 0.0, 0.0, 0.0, 1.0]]]}, {"children_left": [1, 2, 3, 4, -1, 6, -1, -1, 9, 10, 11, -1, -1, 14, -1, -1, -1, 18, -1, 20, 21, 22, 23, -1, 25, 26, -1, -1, 29, 30, -1, -1, -1, -1, -1, 36, -1, -1, -1], "children_right": [38, 17, 8, 5, -1, 7, -1, -1, 16, 13, 12, -1, -1, 15, -1, -1, -1, 19, -1, 35, 34, 33, 24, -1, 28, 27, -1, -1, 32, 31, -1, -1, -1, -1, -1, 37, -1, -1, -1], "feature": [39, 27, 21, 9, -2, 37, -2, -2, 3, 2, 6, -2, -2, 4, -2, -2, -2, 11, -2, 25, 41, 31, 22, -2, 6, 8, -2, -2, 24, 35, -2, -2, -2, -2, -2, 10, -2, -2, -2], "threshold": [0.4152296632528305, -0.4812812805175781, -0.7675678431987762, -0.6314762234687805, -2.0, -0.6069107055664062, -2.0, -2.0, -0.05955107696354389, 0.009065810590982437, -0.4874490201473236, -2.0, -2.0, 0.24660459905862808, -2.0, -2.0, -2.0, -0.5441284477710724, -2.0, -0.9813297688961029, -0.5239640176296234, -0.7438812255859375, -0.16530051082372665, -2.0, -0.383367657661438, -0.4854325205087662, -2.0, -2.0, -0.10653930902481079, -0.391622930765152, -2.0, -2.0, -2.0, -2.0, -2.0, -0.04789357865229249, -2.0, -2.0, -2.0], "value": [[[0.171875, 0.17291666666666666, 0.15520833333333334, 0.1625, 0.16145833333333334, 0.17604166666666668]], [[0.20859671302149177, 0.20986093552465235, 0.18836915297092288, 0.1972187104930468, 0.1959544879898862, 0.0]], [[0.00964630225080386, 0.0, 0.4790996784565916, 0.5016077170418006, 0.00964630225080386, 0.0]], [[0.006711409395973154, 0.0, 0.9932885906040269, 0.0, 0.0, 0.0]], [[0.0, 0.0, 1.0, 0.0, 0.0, 0.0]], [[0.125, 0.0, 0.875, 0.0, 0.0, 0.0]], [[0.0, 0.0, 1.0, 0.0, 0.0, 0.0]], [[1.0, 0.0, 0.0, 0.0, 0.0, 0.0]], [[0.012345679012345678, 0.0, 0.006172839506172839, 0.9629629629629629, 0.018518518518518517, 0.0]], [[0.3333333333333333, 0.0, 0.16666666666666666, 0.0, 0.5, 0.0]], [[0.25, 0.0, 0.0, 0.0, 0.75, 0.0]], [[1.0, 0.0, 0.0, 0.0, 0.0, 0.0]], [[0.0, 0.0, 0.0, 0.0, 1.0, 0.0]], [[0.5, 0.0, 0.5, 0.0, 0.0, 0.0]], [[0.0, 0.0, 1.0, 0.0, 0.0, 0.0]], [[1.0, 0.0, 0.0, 0.0, 0.0, 0.0]], [[0.0, 0.0, 0.0, 1.0, 0.0, 0.0]], [[0.3375, 0.3458333333333333, 0.0, 0.0, 0.31666666666666665, 0.0]], [[0.0, 1.0, 0.0, 0.0, 0.0, 0.0]], [[0.5, 0.030864197530864196, 0.0, 0.0, 0.4691358024691358, 0.0]], [[0.9244186046511628, 0.05813953488372093, 0.0, 0.0, 0.01744186046511628, 0.0]], [[0.9520958083832335, 0.029940119760479042, 0.0, 0.0, 0.017964071856287425, 0.0]], [[0.9695121951219512, 0.012195121951219513, 0.0, 0.0, 0.018292682926829267, 0.0]], [[0.0, 0.0, 0.0, 0.0, 1.0, 0.0]], [[0.9814814814814815, 0.012345679012345678, 0.0, 0.0, 0.006172839506172839, 0.0]], [[0.8, 0.2, 0.0, 0.0, 0.0, 0.0]], [[1.0, 0.0, 0.0, 0.0, 0.0, 0.0]], [[0.0, 1.0, 0.0, 0.0, 0.0, 0.0]], [[0.993421052631579, 0.0, 0.0, 0.0, 0.006578947368421052, 0.0]], [[0.9285714285714286, 0.0, 0.0, 0.0, 0.07142857142857142, 0.0]], [[0.0, 0.0, 0.0, 0.0, 1.0, 0.0]], [[1.0, 0.0, 0.0, 0.0, 0.0, 0.0]], [[1.0, 0.0, 0.0, 0.0, 0.0, 0.0]], [[0.0, 1.0, 0.0, 0.0, 0.0, 0.0]], [[0.0, 1.0, 0.0, 0.0, 0.0, 0.0]], [[0.019736842105263157, 0.0, 0.0, 0.0, 0.9802631578947368, 0.0]], [[0.0, 0.0, 0.0, 0.0, 1.0, 0.0]], [[1.0, 0.0, 0.0, 0.0, 0.0, 0.0]], [[0.0, 0.0, 0.0, 0.0, 0.0, 1.0]]]}, {"children_left": [1, 2, -1, 4, 5, -1, -1, -1, 9, 10, -1, 12, -1, -1, 15, 16, 17, 18, -1, -1, -1, 22, 23, -1, 25, -1, 27, 28, -1, -1, 31, 32, -1, -1, 35, -1, 37, 38, -1, -1, 41, 42, -1, -1, -1, 46, -1, -1, -1], "children_right": [8, 3, -1, 7, 6, -1, -1, -1, 14, 11, -1, 13, -1, -1, 48, 21, 20, 19, -1, -1, -1, 45, 24, -1, 26, -1, 30, 29, -1, -1, 34, 33, -1, -1, 36, -1, 40, 39, -1, -1, 44, 43, -1, -1, -1, 47, -1, -1, -1], "feature": [37, 5, -2, 9, 33, -2, -2, -2, 12, 15, -2, 29, -2, -2, 35, 32, 18, 27, -2, -2, -2, 8, 22, -2, 33, -2, 2, 32, -2, -2, 30, 12, -2, -2, 17, -2, 15, 13, -2, -2, 26, 40, -2, -2, -2, 13, -2, -2, -2], "threshold": [-0.5856992900371552, -0.28157053887844086, -2.0, -0.31750263273715973, -0.9297651052474976, -2.0, -2.0, -2.0, -0.5409717857837677, -0.5802580118179321, -2.0, -0.23288096487522125, -2.0, -2.0, 0.23821477591991425, -0.1536059007048607, -0.07349921204149723, -0.5329854786396027, -2.0, -2.0, -2.0, 0.5687385499477386, -0.16690778732299805, -2.0, -0.9672206044197083, -2.0, -0.1426364704966545, 0.06364276073873043, -2.0, -2.0, -0.08946285769343376, 0.11149141192436218, -2.0, -2.0, -1.1128786206245422, -2.0, -0.8650826513767242, -0.7227131128311157, -2.0, -2.0, -0.02747860737144947, -0.04461103305220604, -2.0, -2.0, -2.0, -0.7658262066543102, -2.0, -2.0, -2.0], "value": [[[0.17916666666666667, 0.16145833333333334, 0.15104166666666666, 0.18645833333333334, 0.178125, 0.14375]], [[0.0, 0.0, 0.42857142857142855, 0.546583850931677, 0.024844720496894408, 0.0]], [[0.0, 0.0, 1.0, 0.0, 0.0, 0.0]], [[0.0, 0.0, 0.0, 0.9565217391304348, 0.043478260869565216, 0.0]], [[0.0, 0.0, 0.0, 0.1111111111111111, 0.8888888888888888, 0.0]], [[0.0, 0.0, 0.0, 0.0, 1.0, 0.0]], [[0.0, 0.0, 0.0, 1.0, 0.0, 0.0]], [[0.0, 0.0, 0.0, 1.0, 0.0, 0.0]], [[0.26959247648902823, 0.24294670846394983, 0.0109717868338558, 0.004702194357366771, 0.2554858934169279, 0.21630094043887146]], [[0.0196078431372549, 0.9803921568627451, 0.0, 0.0, 0.0, 0.0]], [[0.0, 1.0, 0.0, 0.0, 0.0, 0.0]], [[0.75, 0.25, 0.0, 0.0, 0.0, 0.0]], [[1.0, 0.0, 0.0, 0.0, 0.0, 0.0]], [[0.0, 1.0, 0.0, 0.0, 0.0, 0.0]], [[0.34845360824742266, 0.010309278350515464, 0.01443298969072165, 0.006185567010309278, 0.33608247422680415, 0.2845360824742268]], [[0.48703170028818443, 0.01440922190201729, 0.020172910662824207, 0.008645533141210375, 0.4697406340057637, 0.0]], [[0.08045977011494253, 0.0, 0.0, 0.0, 0.9195402298850575, 0.0]], [[0.030303030303030304, 0.0, 0.0, 0.0, 0.9696969696969697, 0.0]], [[1.0, 0.0, 0.0, 0.0, 0.0, 0.0]], [[0.0, 0.0, 0.0, 0.0, 1.0, 0.0]], [[1.0, 0.0, 0.0, 0.0, 0.0, 0.0]], [[0.8959537572254336, 0.028901734104046242, 0.04046242774566474, 0.017341040462427744, 0.017341040462427744, 0.0]], [[0.9337349397590361, 0.030120481927710843, 0.006024096385542169, 0.012048192771084338, 0.018072289156626505, 0.0]], [[0.0, 0.0, 0.0, 1.0, 0.0, 0.0]], [[0.9451219512195121, 0.03048780487804878, 0.006097560975609756, 0.0, 0.018292682926829267, 0.0]], [[0.0, 0.0, 0.0, 0.0, 1.0, 0.0]], [[0.9567901234567902, 0.030864197530864196, 0.006172839506172839, 0.0, 0.006172839506172839, 0.0]], [[0.4, 0.6, 0.0, 0.0, 0.0, 0.0]], [[1.0, 0.0, 0.0, 0.0, 0.0, 0.0]], [[0.0, 1.0, 0.0, 0.0, 0.0, 0.0]], [[0.9745222929936306, 0.012738853503184714, 0.006369426751592357, 0.0, 0.006369426751592357, 0.0]], [[0.6666666666666666, 0.0, 0.3333333333333333, 0.0, 0.0, 0.0]], [[1.0, 0.0, 0.0, 0.0, 0.0, 0.0]], [[0.0, 0.0, 1.0, 0.0, 0.0, 0.0]], [[0.9805194805194806, 0.012987012987012988, 0.0, 0.0, 0.006493506493506494, 0.0]], [[0.0, 1.0, 0.0, 0.0, 0.0, 0.0]], [[0.9869281045751634, 0.006535947712418301, 0.0, 0.0, 0.006535947712418301, 0.0]], [[0.9411764705882353, 0.058823529411764705, 0.0, 0.0, 0.0, 0.0]], [[1.0, 0.0, 0.0, 0.0, 0.0, 0.0]], [[0.0, 1.0, 0.0, 0.0, 0.0, 0.0]], [[0.9926470588235294, 0.0, 0.0, 0.0, 0.007352941176470588, 0.0]], [[0.9696969696969697, 0.0, 0.0, 0.0, 0.030303030303030304, 0.0]], [[1.0, 0.0, 0.0, 0.0, 0.0, 0.0]], [[0.0, 0.0, 0.0, 0.0, 1.0, 0.0]], [[1.0, 0.0, 0.0, 0.0, 0.0, 0.0]], [[0.0, 0.0, 0.8571428571428571, 0.14285714285714285, 0.0, 0.0]], [[0.0, 0.0, 1.0, 0.0, 0.0, 0.0]], [[0.0, 0.0, 0.0, 1.0, 0.0, 0.0]], [[0.0, 0.0, 0.0, 0.0, 0.0, 1.0]]]}, {"children_left": [1, 2, 3, -1, -1, 6, -1, 8, 9, 10, -1, 12, -1, -1, 15, 16, -1, -1, 19, -1, -1, 22, 23, 24, 25, -1, -1, -1, -1, 30, 31, -1, 33, -1, -1, 36, 37, -1, 39, -1, 41, 42, 43, -1, -1, -1, -1, -1, -1], "children_right": [48, 5, 4, -1, -1, 7, -1, 21, 14, 11, -1, 13, -1, -1, 18, 17, -1, -1, 20, -1, -1, 29, 28, 27, 26, -1, -1, -1, -1, 35, 32, -1, 34, -1, -1, 47, 38, -1, 40, -1, 46, 45, 44, -1, -1, -1, -1, -1, -1], "feature": [27, 38, 3, -2, -2, 17, -2, 37, 17, 30, -2, 2, -2, -2, 34, 19, -2, -2, 15, -2, -2, 24, 16, 25, 34, -2, -2, -2, -2, 27, 3, -2, 3, -2, -2, 39, 8, -2, 18, -2, 23, 22, 24, -2, -2, -2, -2, -2, -2], "threshold": [0.1546589331701398, -0.7685645818710327, -0.31427158415317535, -2.0, -2.0, -1.4153493642807007, -2.0, -0.5898335874080658, -0.8960730135440826, -0.06774873333051801, -2.0, 0.2231685221195221, -2.0, -2.0, 0.05564521625638008, -0.4392394423484802, -2.0, -2.0, -0.7834714353084564, -2.0, -2.0, -0.19141031056642532, -0.5752159655094147, -0.6378990709781647, -0.23001745343208313, -2.0, -2.0, -2.0, -2.0, -0.487709641456604, -0.08778408169746399, -2.0, -0.05439218692481518, -2.0, -2.0, -0.4438686817884445, -0.5005325675010681, -2.0, -0.13289421796798706, -2.0, -0.8776118159294128, 0.02570801880210638, -0.02679715515114367, -2.0, -2.0, -2.0, -2.0, -2.0, -2.0], "value": [[[0.17604166666666668, 0.159375, 0.16145833333333334, 0.17916666666666667, 0.16354166666666667, 0.16041666666666668]], [[0.20967741935483872, 0.18982630272952852, 0.19230769230769232, 0.21339950372208435, 0.19478908188585609, 0.0]], [[0.013888888888888888, 0.9861111111111112, 0.0, 0.0, 0.0, 0.0]], [[0.0, 1.0, 0.0, 0.0, 0.0, 0.0]], [[1.0, 0.0, 0.0, 0.0, 0.0, 0.0]], [[0.25226586102719034, 0.01661631419939577, 0.23413897280966767, 0.2598187311178248, 0.23716012084592145, 0.0]], [[0.0, 0.0, 1.0, 0.0, 0.0, 0.0]], [[0.3236434108527132, 0.02131782945736434, 0.01744186046511628, 0.3333333333333333, 0.30426356589147285, 0.0]], [[0.0, 0.005434782608695652, 0.03260869565217391, 0.9239130434782609, 0.03804347826086957, 0.0]], [[0.0, 0.0, 0.5454545454545454, 0.09090909090909091, 0.36363636363636365, 0.0]], [[0.0, 0.0, 0.0, 0.0, 1.0, 0.0]], [[0.0, 0.0, 0.8571428571428571, 0.14285714285714285, 0.0, 0.0]], [[0.0, 0.0, 1.0, 0.0, 0.0, 0.0]], [[0.0, 0.0, 0.0, 1.0, 0.0, 0.0]], [[0.0, 0.005780346820809248, 0.0, 0.976878612716763, 0.017341040462427744, 0.0]], [[0.0, 0.005917159763313609, 0.0, 0.9940828402366864, 0.0, 0.0]], [[0.0, 0.0, 0.0, 1.0, 0.0, 0.0]], [[0.0, 1.0, 0.0, 0.0, 0.0, 0.0]], [[0.0, 0.0, 0.0, 0.25, 0.75, 0.0]], [[0.0, 0.0, 0.0, 1.0, 0.0, 0.0]], [[0.0, 0.0, 0.0, 0.0, 1.0, 0.0]], [[0.5030120481927711, 0.030120481927710843, 0.009036144578313253, 0.006024096385542169, 0.45180722891566266, 0.0]], [[0.0196078431372549, 0.026143790849673203, 0.0, 0.0, 0.954248366013072, 0.0]], [[0.375, 0.5, 0.0, 0.0, 0.125, 0.0]], [[0.75, 0.0, 0.0, 0.0, 0.25, 0.0]], [[0.0, 0.0, 0.0, 0.0, 1.0, 0.0]], [[1.0, 0.0, 0.0, 0.0, 0.0, 0.0]], [[0.0, 1.0, 0.0, 0.0, 0.0, 0.0]], [[0.0, 0.0, 0.0, 0.0, 1.0, 0.0]], [[0.9162011173184358, 0.0335195530726257, 0.01675977653631285, 0.0111731843575419, 0.0223463687150838, 0.0]], [[0.0, 0.0, 0.5, 0.3333333333333333, 0.16666666666666666, 0.0]], [[0.0, 0.0, 1.0, 0.0, 0.0, 0.0]], [[0.0, 0.0, 0.0, 0.6666666666666666, 0.3333333333333333, 0.0]], [[0.0, 0.0, 0.0, 0.0, 1.0, 0.0]], [[0.0, 0.0, 0.0, 1.0, 0.0, 0.0]], [[0.9479768786127167, 0.03468208092485549, 0.0, 0.0, 0.017341040462427744, 0.0]], [[0.9704142011834319, 0.011834319526627219, 0.0, 0.0, 0.01775147928994083, 0.0]], [[0.0, 1.0, 0.0, 0.0, 0.0, 0.0]], [[0.9761904761904762, 0.005952380952380952, 0.0, 0.0, 0.017857142857142856, 0.0]], [[0.0, 0.0, 0.0, 0.0, 1.0, 0.0]], [[0.9820359281437125, 0.005988023952095809, 0.0, 0.0, 0.011976047904191617, 0.0]], [[0.5, 0.16666666666666666, 0.0, 0.0, 0.3333333333333333, 0.0]], [[0.0, 0.3333333333333333, 0.0, 0.0, 0.6666666666666666, 0.0]], [[0.0, 0.0, 0.0, 0.0, 1.0, 0.0]], [[0.0, 1.0, 0.0, 0.0, 0.0, 0.0]], [[1.0, 0.0, 0.0, 0.0, 0.0, 0.0]], [[1.0, 0.0, 0.0, 0.0, 0.0, 0.0]], [[0.0, 1.0, 0.0, 0.0, 0.0, 0.0]], [[0.0, 0.0, 0.0, 0.0, 0.0, 1.0]]]}, {"children_left": [1, 2, -1, 4, 5, 6, -1, 8, -1, 10, -1, -1, -1, 14, -1, 16, -1, 18, -1, 20, 21, -1, 23, 24, -1, 26, 27, 28, -1, -1, -1, 32, 33, -1, -1, 36, 37, -1, -1, -1, -1, 42, -1, -1, -1], "children_right": [44, 3, -1, 13, 12, 7, -1, 9, -1, 11, -1, -1, -1, 15, -1, 17, -1, 19, -1, 41, 22, -1, 40, 25, -1, 31, 30, 29, -1, -1, -1, 35, 34, -1, -1, 39, 38, -1, -1, -1, -1, 43, -1, -1, -1], "feature": [9, 35, -2, 27, 5, 20, -2, 40, -2, 6, -2, -2, -2, 18, -2, 24, -2, 8, -2, 16, 17, -2, 39, 35, -2, 2, 3, 37, -2, -2, -2, 8, 22, -2, -2, 19, 25, -2, -2, -2, -2, 36, -2, -2, -2], "threshold": [0.24610747024416924, -0.5468176603317261, -2.0, -0.4779341518878937, -0.1780443862080574, -0.24125489592552185, -2.0, -0.2519197165966034, -2.0, 0.033424198627471924, -2.0, -2.0, -2.0, -0.358963206410408, -2.0, -0.19327864795923233, -2.0, -0.5247495770454407, -2.0, 0.33625923097133636, -1.1128786206245422, -2.0, -0.44132475554943085, -0.40909816324710846, -2.0, -0.14122747629880905, -0.061501795426011086, -0.4808250665664673, -2.0, -2.0, -2.0, -0.5005325675010681, -0.09993540868163109, -2.0, -2.0, -0.5014370381832123, -0.9988459646701813, -2.0, -2.0, -2.0, -2.0, 0.22553541138768196, -2.0, -2.0, -2.0], "value": [[[0.14895833333333333, 0.15625, 0.15625, 0.17916666666666667, 0.18020833333333333, 0.17916666666666667]], [[0.1814720812182741, 0.19035532994923857, 0.19035532994923857, 0.2182741116751269, 0.21954314720812182, 0.0]], [[0.0, 0.0, 1.0, 0.0, 0.0, 0.0]], [[0.2234375, 0.234375, 0.003125, 0.26875, 0.2703125, 0.0]], [[0.026737967914438502, 0.0, 0.0106951871657754, 0.9090909090909091, 0.053475935828877004, 0.0]], [[0.29411764705882354, 0.0, 0.11764705882352941, 0.0, 0.5882352941176471, 0.0]], [[1.0, 0.0, 0.0, 0.0, 0.0, 0.0]], [[0.0, 0.0, 0.16666666666666666, 0.0, 0.8333333333333334, 0.0]], [[0.0, 0.0, 1.0, 0.0, 0.0, 0.0]], [[0.0, 0.0, 0.09090909090909091, 0.0, 0.9090909090909091, 0.0]], [[0.0, 0.0, 0.0, 0.0, 1.0, 0.0]], [[0.0, 0.0, 1.0, 0.0, 0.0, 0.0]], [[0.0, 0.0, 0.0, 1.0, 0.0, 0.0]], [[0.304635761589404, 0.33112582781456956, 0.0, 0.004415011037527594, 0.3598233995584989, 0.0]], [[0.0, 1.0, 0.0, 0.0, 0.0, 0.0]], [[0.4423076923076923, 0.028846153846153848, 0.0, 0.00641025641025641, 0.5224358974358975, 0.0]], [[0.0, 0.0, 0.0, 0.0, 1.0, 0.0]], [[0.8903225806451613, 0.05806451612903226, 0.0, 0.012903225806451613, 0.03870967741935484, 0.0]], [[0.0, 1.0, 0.0, 0.0, 0.0, 0.0]], [[0.9078947368421053, 0.039473684210526314, 0.0, 0.013157894736842105, 0.039473684210526314, 0.0]], [[0.9324324324324325, 0.02702702702702703, 0.0, 0.0, 0.04054054054054054, 0.0]], [[0.0, 1.0, 0.0, 0.0, 0.0, 0.0]], [[0.9387755102040817, 0.02040816326530612, 0.0, 0.0, 0.04081632653061224, 0.0]], [[0.9452054794520548, 0.0136986301369863, 0.0, 0.0, 0.0410958904109589, 0.0]], [[0.0, 0.0, 0.0, 0.0, 1.0, 0.0]], [[0.965034965034965, 0.013986013986013986, 0.0, 0.0, 0.02097902097902098, 0.0]], [[0.6666666666666666, 0.16666666666666666, 0.0, 0.0, 0.16666666666666666, 0.0]], [[0.0, 0.5, 0.0, 0.0, 0.5, 0.0]], [[0.0, 0.0, 0.0, 0.0, 1.0, 0.0]], [[0.0, 1.0, 0.0, 0.0, 0.0, 0.0]], [[1.0, 0.0, 0.0, 0.0, 0.0, 0.0]], [[0.9781021897810219, 0.0072992700729927005, 0.0, 0.0, 0.014598540145985401, 0.0]], [[0.75, 0.25, 0.0, 0.0, 0.0, 0.0]], [[1.0, 0.0, 0.0, 0.0, 0.0, 0.0]], [[0.0, 1.0, 0.0, 0.0, 0.0, 0.0]], [[0.9849624060150376, 0.0, 0.0, 0.0, 0.015037593984962405, 0.0]], [[0.8, 0.0, 0.0, 0.0, 0.2, 0.0]], [[0.0, 0.0, 0.0, 0.0, 1.0, 0.0]], [[1.0, 0.0, 0.0, 0.0, 0.0, 0.0]], [[1.0, 0.0, 0.0, 0.0, 0.0, 0.0]], [[0.0, 1.0, 0.0, 0.0, 0.0, 0.0]], [[0.0, 0.5, 0.0, 0.5, 0.0, 0.0]], [[0.0, 1.0, 0.0, 0.0, 0.0, 0.0]], [[0.0, 0.0, 0.0, 1.0, 0.0, 0.0]], [[0.0, 0.0, 0.0, 0.0, 0.0, 1.0]]]}, {"children_left": [1, -1, 3, 4, 5, -1, -1, 8, 9, 10, 11, -1, -1, -1, 15, -1, -1, 18, 19, -1, -1, 22, 23, -1, -1, 26, -1, 28, -1, -1, -1], "children_right": [2, -1, 30, 7, 6, -1, -1, 17, 14, 13, 12, -1, -1, -1, 16, -1, -1, 21, 20, -1, -1, 25, 24, -1, -1, 27, -1, 29, -1, -1, -1], "feature": [29, -2, 37, 4, 34, -2, -2, 29, 3, 20, 6, -2, -2, -2, 27, -2, -2, 24, 16, -2, -2, 2, 25, -2, -2, 23, -2, 11, -2, -2, -2], "threshold": [-0.7730330526828766, -2.0, 0.3993299752473831, -0.36719827353954315, -0.511722519993782, -2.0, -2.0, -0.6971356570720673, -0.0694230180233717, -0.0790535231353715, -0.3719882071018219, -2.0, -2.0, -2.0, -0.47177407145500183, -2.0, -2.0, -0.16359815001487732, -0.12049909308552742, -2.0, -2.0, -0.1426364704966545, -0.9940740466117859, -2.0, -2.0, -0.906342476606369, -2.0, -0.25874097645282745, -2.0, -2.0, -2.0], "value": [[[0.15729166666666666, 0.165625, 0.19270833333333334, 0.153125, 0.17083333333333334, 0.16041666666666668]], [[0.0, 0.0, 1.0, 0.0, 0.0, 0.0]], [[0.19186785260482847, 0.2020330368487929, 0.015247776365946633, 0.18678526048284624, 0.20838627700127066, 0.19567979669631513]], [[0.23854660347551343, 0.25118483412322273, 0.018957345971563982, 0.23222748815165878, 0.25908372827804105, 0.0]], [[0.013071895424836602, 0.9869281045751634, 0.0, 0.0, 0.0, 0.0]], [[0.0, 1.0, 0.0, 0.0, 0.0, 0.0]], [[1.0, 0.0, 0.0, 0.0, 0.0, 0.0]], [[0.3104166666666667, 0.016666666666666666, 0.025, 0.30625, 0.3416666666666667, 0.0]], [[0.023952095808383235, 0.023952095808383235, 0.0718562874251497, 0.874251497005988, 0.005988023952095809, 0.0]], [[0.23529411764705882, 0.0, 0.7058823529411765, 0.0, 0.058823529411764705, 0.0]], [[0.8, 0.0, 0.0, 0.0, 0.2, 0.0]], [[1.0, 0.0, 0.0, 0.0, 0.0, 0.0]], [[0.0, 0.0, 0.0, 0.0, 1.0, 0.0]], [[0.0, 0.0, 1.0, 0.0, 0.0, 0.0]], [[0.0, 0.02666666666666667, 0.0, 0.9733333333333334, 0.0, 0.0]], [[0.0, 0.0, 0.0, 1.0, 0.0, 0.0]], [[0.0, 1.0, 0.0, 0.0, 0.0, 0.0]], [[0.46325878594249204, 0.012779552715654952, 0.0, 0.003194888178913738, 0.5207667731629393, 0.0]], [[0.018072289156626505, 0.0, 0.0, 0.0, 0.9819277108433735, 0.0]], [[0.0, 0.0, 0.0, 0.0, 1.0, 0.0]], [[1.0, 0.0, 0.0, 0.0, 0.0, 0.0]], [[0.9659863945578231, 0.027210884353741496, 0.0, 0.006802721088435374, 0.0, 0.0]], [[0.25, 0.75, 0.0, 0.0, 0.0, 0.0]], [[0.0, 1.0, 0.0, 0.0, 0.0, 0.0]], [[1.0, 0.0, 0.0, 0.0, 0.0, 0.0]], [[0.986013986013986, 0.006993006993006993, 0.0, 0.006993006993006993, 0.0, 0.0]], [[0.0, 1.0, 0.0, 0.0, 0.0, 0.0]], [[0.9929577464788732, 0.0, 0.0, 0.007042253521126761, 0.0, 0.0]], [[1.0, 0.0, 0.0, 0.0, 0.0, 0.0]], [[0.0, 0.0, 0.0, 1.0, 0.0, 0.0]], [[0.0, 0.0, 0.0, 0.0, 0.0, 1.0]]]}, {"children_left": [1, -1, 3, 4, 5, 6, -1, 8, -1, -1, 11, 12, -1, 14, -1, 16, -1, -1, -1, 20, 21, 22, -1, 24, -1, -1, 27, -1, -1, 30, 31, -1, -1, 34, 35, -1, 37, 38, 39, -1, -1, -1, 43, -1, -1, -1, -1], "children_right": [2, -1, 46, 19, 10, 7, -1, 9, -1, -1, 18, 13, -1, 15, -1, 17, -1, -1, -1, 29, 26, 23, -1, 25, -1, -1, 28, -1, -1, 33, 32, -1, -1, 45, 36, -1, 42, 41, 40, -1, -1, -1, 44, -1, -1, -1, -1], "feature": [20, -2, 9, 29, 17, 5, -2, 31, -2, -2, 40, 9, -2, 16, -2, 16, -2, -2, -2, 38, 23, 22, -2, 21, -2, -2, 40, -2, -2, 22, 22, -2, -2, 38, 17, -2, 24, 40, 4, -2, -2, -2, 2, -2, -2, -2, -2], "threshold": [-0.9974169433116913, -2.0, 0.24809645488858223, -0.6997993588447571, -0.9110113382339478, -0.28183668851852417, -2.0, -0.9766569435596466, -2.0, -2.0, 0.22637540847063065, -0.442025288939476, -2.0, 0.4019382447004318, -2.0, 0.40499119460582733, -2.0, -2.0, -2.0, -0.20421801507472992, -0.8508744239807129, -0.17825669050216675, -2.0, -0.7429117560386658, -2.0, -2.0, -0.87529656291008, -2.0, -2.0, -0.16376633942127228, -0.25853217393159866, -2.0, -2.0, 0.47577548027038574, -1.1128786206245422, -2.0, -0.07273047417402267, 0.2633164972066879, -0.241932675242424, -2.0, -2.0, -2.0, -0.14188827574253082, -2.0, -2.0, -2.0, -2.0], "value": [[[0.17916666666666667, 0.17604166666666668, 0.14270833333333333, 0.17395833333333333, 0.178125, 0.15]], [[0.0, 1.0, 0.0, 0.0, 0.0, 0.0]], [[0.21553884711779447, 0.008771929824561403, 0.17167919799498746, 0.20927318295739347, 0.21428571428571427, 0.18045112781954886]], [[0.26299694189602446, 0.010703363914373088, 0.20948012232415902, 0.25535168195718655, 0.26146788990825687, 0.0]], [[0.0032679738562091504, 0.006535947712418301, 0.4411764705882353, 0.5392156862745098, 0.00980392156862745, 0.0]], [[0.0, 0.0, 0.9926470588235294, 0.007352941176470588, 0.0, 0.0]], [[0.0, 0.0, 1.0, 0.0, 0.0, 0.0]], [[0.0, 0.0, 0.6666666666666666, 0.3333333333333333, 0.0, 0.0]], [[0.0, 0.0, 0.0, 1.0, 0.0, 0.0]], [[0.0, 0.0, 1.0, 0.0, 0.0, 0.0]], [[0.0058823529411764705, 0.011764705882352941, 0.0, 0.9647058823529412, 0.01764705882352941, 0.0]], [[0.005988023952095809, 0.011976047904191617, 0.0, 0.9820359281437125, 0.0, 0.0]], [[1.0, 0.0, 0.0, 0.0, 0.0, 0.0]], [[0.0, 0.012048192771084338, 0.0, 0.9879518072289156, 0.0, 0.0]], [[0.0, 0.0, 0.0, 1.0, 0.0, 0.0]], [[0.0, 0.05263157894736842, 0.0, 0.9473684210526315, 0.0, 0.0]], [[0.0, 1.0, 0.0, 0.0, 0.0, 0.0]], [[0.0, 0.0, 0.0, 1.0, 0.0, 0.0]], [[0.0, 0.0, 0.0, 0.0, 1.0, 0.0]], [[0.49137931034482757, 0.014367816091954023, 0.005747126436781609, 0.005747126436781609, 0.4827586206896552, 0.0]], [[0.10059171597633136, 0.005917159763313609, 0.011834319526627219, 0.0, 0.8816568047337278, 0.0]], [[0.8095238095238095, 0.0, 0.09523809523809523, 0.0, 0.09523809523809523, 0.0]], [[0.0, 0.0, 0.0, 0.0, 1.0, 0.0]], [[0.8947368421052632, 0.0, 0.10526315789473684, 0.0, 0.0, 0.0]], [[0.0, 0.0, 1.0, 0.0, 0.0, 0.0]], [[1.0, 0.0, 0.0, 0.0, 0.0, 0.0]], [[0.0, 0.006756756756756757, 0.0, 0.0, 0.9932432432432432, 0.0]], [[0.0, 1.0, 0.0, 0.0, 0.0, 0.0]], [[0.0, 0.0, 0.0, 0.0, 1.0, 0.0]], [[0.8603351955307262, 0.0223463687150838, 0.0, 0.0111731843575419, 0.10614525139664804, 0.0]], [[0.0, 0.0, 0.0, 0.05555555555555555, 0.9444444444444444, 0.0]], [[0.0, 0.0, 0.0, 1.0, 0.0, 0.0]], [[0.0, 0.0, 0.0, 0.0, 1.0, 0.0]], [[0.9565217391304348, 0.024844720496894408, 0.0, 0.006211180124223602, 0.012422360248447204, 0.0]], [[0.9625, 0.025, 0.0, 0.0, 0.0125, 0.0]], [[0.0, 1.0, 0.0, 0.0, 0.0, 0.0]], [[0.9685534591194969, 0.018867924528301886, 0.0, 0.0, 0.012578616352201259, 0.0]], [[0.8571428571428571, 0.07142857142857142, 0.0, 0.0, 0.07142857142857142, 0.0]], [[0.9230769230769231, 0.0, 0.0, 0.0, 0.07692307692307693, 0.0]], [[1.0, 0.0, 0.0, 0.0, 0.0, 0.0]], [[0.0, 0.0, 0.0, 0.0, 1.0, 0.0]], [[0.0, 1.0, 0.0, 0.0, 0.0, 0.0]], [[0.9923664122137404, 0.007633587786259542, 0.0, 0.0, 0.0, 0.0]], [[0.0, 1.0, 0.0, 0.0, 0.0, 0.0]], [[1.0, 0.0, 0.0, 0.0, 0.0, 0.0]], [[0.0, 0.0, 0.0, 1.0, 0.0, 0.0]], [[0.0, 0.0, 0.0, 0.0, 0.0, 1.0]]]}, {"children_left": [1, -1, 3, 4, 5, -1, 7, 8, 9, 10, -1, -1, -1, -1, 15, -1, 17, -1, -1, 20, 21, -1, 23, 24, -1, -1, -1, 28, 29, 30, 31, -1, -1, -1, 35, 36, 37, 38, -1, -1, -1, 42, -1, 44, -1, -1, 47, -1, -1, 50, -1, 52, -1, -1, -1], "children_right": [2, -1, 54, 19, 6, -1, 14, 13, 12, 11, -1, -1, -1, -1, 16, -1, 18, -1, -1, 27, 22, -1, 26, 25, -1, -1, -1, 49, 34, 33, 32, -1, -1, -1, 46, 41, 40, 39, -1, -1, -1, 43, -1, 45, -1, -1, 48, -1, -1, 51, -1, 53, -1, -1, -1], "feature": [18, -2, 35, 37, 7, -2, 31, 36, 9, 14, -2, -2, -2, -2, 5, -2, 6, -2, -2, 22, 11, -2, 40, 19, -2, -2, -2, 39, 19, 4, 6, -2, -2, -2, 29, 24, 40, 35, -2, -2, -2, 27, -2, 22, -2, -2, 13, -2, -2, 32, -2, 19, -2, -2, -2], "threshold": [-0.5353287905454636, -2.0, 0.23821477591991425, -0.5782303214073181, -0.42627881467342377, -2.0, -0.8346774578094482, 0.13203074038028717, -0.28073595464229584, 0.3392963111400604, -2.0, -2.0, -2.0, -2.0, -0.2109369933605194, -2.0, -0.048148468136787415, -2.0, -2.0, -0.17337599396705627, -0.6158842742443085, -2.0, 0.022897638380527496, -0.3194977939128876, -2.0, -2.0, -2.0, -0.4435674399137497, -0.5146453976631165, 0.20998860150575638, -0.02084241807460785, -2.0, -2.0, -2.0, -0.5957210063934326, -0.046342067420482635, 0.2633164972066879, -0.3899058550596237, -2.0, -2.0, -2.0, -0.38488976657390594, -2.0, 0.022021470591425896, -2.0, -2.0, -0.7221860289573669, -2.0, -2.0, 0.4051424115896225, -2.0, -0.5422579664736986, -2.0, -2.0, -2.0], "value": [[[0.18645833333333334, 0.15416666666666667, 0.165625, 0.17083333333333334, 0.15416666666666667, 0.16875]], [[0.0, 1.0, 0.0, 0.0, 0.0, 0.0]], [[0.21696969696969698, 0.01575757575757576, 0.19272727272727272, 0.1987878787878788, 0.17939393939393938, 0.19636363636363635]], [[0.26998491704374056, 0.0196078431372549, 0.2398190045248869, 0.2473604826546003, 0.22322775263951736, 0.0]], [[0.00911854103343465, 0.0121580547112462, 0.46808510638297873, 0.48936170212765956, 0.02127659574468085, 0.0]], [[0.0, 0.0, 1.0, 0.0, 0.0, 0.0]], [[0.017142857142857144, 0.022857142857142857, 0.0, 0.92, 0.04, 0.0]], [[0.0, 0.024096385542168676, 0.0, 0.963855421686747, 0.012048192771084338, 0.0]], [[0.0, 0.024390243902439025, 0.0, 0.975609756097561, 0.0, 0.0]], [[0.0, 0.4444444444444444, 0.0, 0.5555555555555556, 0.0, 0.0]], [[0.0, 0.0, 0.0, 1.0, 0.0, 0.0]], [[0.0, 1.0, 0.0, 0.0, 0.0, 0.0]], [[0.0, 0.0, 0.0, 1.0, 0.0, 0.0]], [[0.0, 0.0, 0.0, 0.0, 1.0, 0.0]], [[0.3333333333333333, 0.0, 0.0, 0.1111111111111111, 0.5555555555555556, 0.0]], [[0.0, 0.0, 0.0, 0.0, 1.0, 0.0]], [[0.75, 0.0, 0.0, 0.25, 0.0, 0.0]], [[0.0, 0.0, 0.0, 1.0, 0.0, 0.0]], [[1.0, 0.0, 0.0, 0.0, 0.0, 0.0]], [[0.5269461077844312, 0.02694610778443114, 0.014970059880239521, 0.008982035928143712, 0.4221556886227545, 0.0]], [[0.04794520547945205, 0.00684931506849315, 0.0, 0.0136986301369863, 0.9315068493150684, 0.0]], [[1.0, 0.0, 0.0, 0.0, 0.0, 0.0]], [[0.0, 0.007194244604316547, 0.0, 0.014388489208633094, 0.9784172661870504, 0.0]], [[0.0, 0.0072992700729927005, 0.0, 0.0, 0.9927007299270073, 0.0]], [[0.0, 0.0, 0.0, 0.0, 1.0, 0.0]], [[0.0, 1.0, 0.0, 0.0, 0.0, 0.0]], [[0.0, 0.0, 0.0, 1.0, 0.0, 0.0]], [[0.898936170212766, 0.0425531914893617, 0.026595744680851064, 0.005319148936170213, 0.026595744680851064, 0.0]], [[0.9337016574585635, 0.022099447513812154, 0.016574585635359115, 0.0, 0.027624309392265192, 0.0]], [[0.16666666666666666, 0.0, 0.5, 0.0, 0.3333333333333333, 0.0]], [[0.3333333333333333, 0.0, 0.0, 0.0, 0.6666666666666666, 0.0]], [[0.0, 0.0, 0.0, 0.0, 1.0, 0.0]], [[1.0, 0.0, 0.0, 0.0, 0.0, 0.0]], [[0.0, 0.0, 1.0, 0.0, 0.0, 0.0]], [[0.96, 0.022857142857142857, 0.0, 0.0, 0.017142857142857144, 0.0]], [[0.9709302325581395, 0.011627906976744186, 0.0, 0.0, 0.01744186046511628, 0.0]], [[0.9130434782608695, 0.021739130434782608, 0.0, 0.0, 0.06521739130434782, 0.0]], [[0.9333333333333333, 0.0, 0.0, 0.0, 0.06666666666666667, 0.0]], [[0.0, 0.0, 0.0, 0.0, 1.0, 0.0]], [[1.0, 0.0, 0.0, 0.0, 0.0, 0.0]], [[0.0, 1.0, 0.0, 0.0, 0.0, 0.0]], [[0.9920634920634921, 0.007936507936507936, 0.0, 0.0, 0.0, 0.0]], [[1.0, 0.0, 0.0, 0.0, 0.0, 0.0]], [[0.75, 0.25, 0.0, 0.0, 0.0, 0.0]], [[0.0, 1.0, 0.0, 0.0, 0.0, 0.0]], [[1.0, 0.0, 0.0, 0.0, 0.0, 0.0]], [[0.3333333333333333, 0.6666666666666666, 0.0, 0.0, 0.0, 0.0]], [[1.0, 0.0, 0.0, 0.0, 0.0, 0.0]], [[0.0, 1.0, 0.0, 0.0, 0.0, 0.0]], [[0.0, 0.5714285714285714, 0.2857142857142857, 0.14285714285714285, 0.0, 0.0]], [[0.0, 1.0, 0.0, 0.0, 0.0, 0.0]], [[0.0, 0.0, 0.6666666666666666, 0.3333333333333333, 0.0, 0.0]], [[0.0, 0.0, 1.0, 0.0, 0.0, 0.0]], [[0.0, 0.0, 0.0, 1.0, 0.0, 0.0]], [[0.0, 0.0, 0.0, 0.0, 0.0, 1.0]]]}, {"children_left": [1, 2, -1, 4, -1, 6, 7, 8, 9, -1, -1, -1, 13, -1, -1, 16, 17, -1, 19, -1, -1, 22, -1, 24, 25, 26, 27, -1, -1, 30, 31, -1, -1, 34, -1, 36, 37, -1, -1, -1, -1, -1, -1], "children_right": [42, 3, -1, 5, -1, 15, 12, 11, 10, -1, -1, -1, 14, -1, -1, 21, 18, -1, 20, -1, -1, 23, -1, 41, 40, 29, 28, -1, -1, 33, 32, -1, -1, 35, -1, 39, 38, -1, -1, -1, -1, -1, -1], "feature": [31, 17, -2, 3, -2, 41, 17, 13, 9, -2, -2, -2, 13, -2, -2, 24, 11, -2, 10, -2, -2, 16, -2, 39, 6, 23, 38, -2, -2, 31, 35, -2, -2, 39, -2, 7, 15, -2, -2, -2, -2, -2, -2], "threshold": [0.36220301408320665, -1.4162181615829468, -2.0, -0.34648825228214264, -2.0, -0.7883705496788025, -0.8866773247718811, -0.698078066110611, -0.39985688030719757, -2.0, -2.0, -2.0, -0.5275997370481491, -2.0, -2.0, -0.18746057897806168, -0.6086333990097046, -2.0, -0.04490441153757274, -2.0, -2.0, -0.352688267827034, -2.0, -0.4435674399137497, 0.39615990221500397, -0.8849260210990906, -0.002987086772918701, -2.0, -2.0, -0.8303627073764801, -0.40909816324710846, -2.0, -2.0, -0.5647790133953094, -2.0, -0.3048764318227768, -0.819770485162735, -2.0, -2.0, -2.0, -2.0, -2.0, -2.0], "value": [[[0.171875, 0.17395833333333333, 0.16041666666666668, 0.17395833333333333, 0.15833333333333333, 0.16145833333333334]], [[0.20496894409937888, 0.20745341614906831, 0.19130434782608696, 0.20745341614906831, 0.18881987577639753, 0.0]], [[0.0, 0.0, 1.0, 0.0, 0.0, 0.0]], [[0.2507598784194529, 0.25379939209726443, 0.010638297872340425, 0.25379939209726443, 0.23100303951367782, 0.0]], [[0.0, 1.0, 0.0, 0.0, 0.0, 0.0]], [[0.32934131736526945, 0.01996007984031936, 0.013972055888223553, 0.3333333333333333, 0.3033932135728543, 0.0]], [[0.016666666666666666, 0.016666666666666666, 0.03333333333333333, 0.8944444444444445, 0.03888888888888889, 0.0]], [[0.1875, 0.0, 0.375, 0.0, 0.4375, 0.0]], [[0.3333333333333333, 0.0, 0.6666666666666666, 0.0, 0.0, 0.0]], [[0.0, 0.0, 1.0, 0.0, 0.0, 0.0]], [[1.0, 0.0, 0.0, 0.0, 0.0, 0.0]], [[0.0, 0.0, 0.0, 0.0, 1.0, 0.0]], [[0.0, 0.018292682926829267, 0.0, 0.9817073170731707, 0.0, 0.0]], [[0.0, 0.0, 0.0, 1.0, 0.0, 0.0]], [[0.0, 1.0, 0.0, 0.0, 0.0, 0.0]], [[0.5046728971962616, 0.021806853582554516, 0.003115264797507788, 0.018691588785046728, 0.4517133956386293, 0.0]], [[0.04697986577181208, 0.0, 0.0, 0.0, 0.9530201342281879, 0.0]], [[1.0, 0.0, 0.0, 0.0, 0.0, 0.0]], [[0.013888888888888888, 0.0, 0.0, 0.0, 0.9861111111111112, 0.0]], [[0.0, 0.0, 0.0, 0.0, 1.0, 0.0]], [[1.0, 0.0, 0.0, 0.0, 0.0, 0.0]], [[0.9011627906976745, 0.040697674418604654, 0.005813953488372093, 0.03488372093023256, 0.01744186046511628, 0.0]], [[0.0, 0.0, 0.0, 1.0, 0.0, 0.0]], [[0.9281437125748503, 0.041916167664670656, 0.005988023952095809, 0.005988023952095809, 0.017964071856287425, 0.0]], [[0.9451219512195121, 0.024390243902439025, 0.006097560975609756, 0.006097560975609756, 0.018292682926829267, 0.0]], [[0.950920245398773, 0.024539877300613498, 0.006134969325153374, 0.0, 0.018404907975460124, 0.0]], [[0.0, 0.5, 0.5, 0.0, 0.0, 0.0]], [[0.0, 0.0, 1.0, 0.0, 0.0, 0.0]], [[0.0, 1.0, 0.0, 0.0, 0.0, 0.0]], [[0.9627329192546584, 0.018633540372670808, 0.0, 0.0, 0.018633540372670808, 0.0]], [[0.75, 0.0, 0.0, 0.0, 0.25, 0.0]], [[0.0, 0.0, 0.0, 0.0, 1.0, 0.0]], [[1.0, 0.0, 0.0, 0.0, 0.0, 0.0]], [[0.9738562091503268, 0.0196078431372549, 0.0, 0.0, 0.006535947712418301, 0.0]], [[1.0, 0.0, 0.0, 0.0, 0.0, 0.0]], [[0.9, 0.075, 0.0, 0.0, 0.025, 0.0]], [[0.972972972972973, 0.0, 0.0, 0.0, 0.02702702702702703, 0.0]], [[1.0, 0.0, 0.0, 0.0, 0.0, 0.0]], [[0.0, 0.0, 0.0, 0.0, 1.0, 0.0]], [[0.0, 1.0, 0.0, 0.0, 0.0, 0.0]], [[0.0, 0.0, 0.0, 1.0, 0.0, 0.0]], [[0.0, 1.0, 0.0, 0.0, 0.0, 0.0]], [[0.0, 0.0, 0.0, 0.0, 0.0, 1.0]]]}, {"children_left": [1, -1, 3, 4, 5, 6, -1, 8, -1, -1, -1, -1, 13, 14, 15, -1, 17, 18, -1, -1, -1, 22, -1, 24, -1, 26, 27, -1, 29, 30, -1, -1, -1, -1, -1], "children_right": [2, -1, 12, 11, 10, 7, -1, 9, -1, -1, -1, -1, 34, 21, 16, -1, 20, 19, -1, -1, -1, 23, -1, 25, -1, 33, 28, -1, 32, 31, -1, -1, -1, -1, -1], "feature": [20, -2, 29, 3, 9, 37, -2, 2, -2, -2, -2, -2, 3, 18, 15, -2, 5, 4, -2, -2, -2, 16, -2, 4, -2, 37, 37, -2, 26, 24, -2, -2, -2, -2, -2], "threshold": [-0.9980914890766144, -2.0, -0.6971356570720673, -0.05548125319182873, -0.39698199927806854, -0.5449576079845428, -2.0, -0.07835028320550919, -2.0, -2.0, -2.0, -2.0, 0.04834008449688554, -0.08636260777711868, -0.7564529478549957, -2.0, -0.15516602993011475, -0.3283347636461258, -2.0, -2.0, -2.0, -0.2987828403711319, -2.0, -0.2668617516756058, -2.0, -0.03954918682575226, -0.4165199249982834, -2.0, 0.053529467433691025, -0.01221532840281725, -2.0, -2.0, -2.0, -2.0, -2.0], "value": [[[0.18333333333333332, 0.175, 0.15833333333333333, 0.1625, 0.17291666666666666, 0.14791666666666667]], [[0.0, 1.0, 0.0, 0.0, 0.0, 0.0]], [[0.2194513715710723, 0.012468827930174564, 0.18952618453865336, 0.19451371571072318, 0.20698254364089774, 0.1770573566084788]], [[0.003194888178913738, 0.0, 0.48562300319488816, 0.4952076677316294, 0.01597444089456869, 0.0]], [[0.006329113924050633, 0.0, 0.9620253164556962, 0.0, 0.03164556962025317, 0.0]], [[0.006535947712418301, 0.0, 0.9934640522875817, 0.0, 0.0, 0.0]], [[0.0, 0.0, 1.0, 0.0, 0.0, 0.0]], [[0.5, 0.0, 0.5, 0.0, 0.0, 0.0]], [[1.0, 0.0, 0.0, 0.0, 0.0, 0.0]], [[0.0, 0.0, 1.0, 0.0, 0.0, 0.0]], [[0.0, 0.0, 0.0, 0.0, 1.0, 0.0]], [[0.0, 0.0, 0.0, 1.0, 0.0, 0.0]], [[0.35787321063394684, 0.02044989775051125, 0.0, 0.002044989775051125, 0.3292433537832311, 0.2903885480572597]], [[0.5043227665706052, 0.02881844380403458, 0.0, 0.002881844380403458, 0.46397694524495675, 0.0]], [[0.04046242774566474, 0.028901734104046242, 0.0, 0.0, 0.930635838150289, 0.0]], [[0.0, 0.0, 0.0, 0.0, 1.0, 0.0]], [[0.4666666666666667, 0.3333333333333333, 0.0, 0.0, 0.2, 0.0]], [[0.0, 0.625, 0.0, 0.0, 0.375, 0.0]], [[0.0, 1.0, 0.0, 0.0, 0.0, 0.0]], [[0.0, 0.0, 0.0, 0.0, 1.0, 0.0]], [[1.0, 0.0, 0.0, 0.0, 0.0, 0.0]], [[0.9655172413793104, 0.028735632183908046, 0.0, 0.005747126436781609, 0.0, 0.0]], [[0.0, 1.0, 0.0, 0.0, 0.0, 0.0]], [[0.9767441860465116, 0.01744186046511628, 0.0, 0.005813953488372093, 0.0, 0.0]], [[0.0, 1.0, 0.0, 0.0, 0.0, 0.0]], [[0.9882352941176471, 0.0058823529411764705, 0.0, 0.0058823529411764705, 0.0, 0.0]], [[0.9940828402366864, 0.005917159763313609, 0.0, 0.0, 0.0, 0.0]], [[1.0, 0.0, 0.0, 0.0, 0.0, 0.0]], [[0.9545454545454546, 0.045454545454545456, 0.0, 0.0, 0.0, 0.0]], [[0.5, 0.5, 0.0, 0.0, 0.0, 0.0]], [[0.0, 1.0, 0.0, 0.0, 0.0, 0.0]], [[1.0, 0.0, 0.0, 0.0, 0.0, 0.0]], [[1.0, 0.0, 0.0, 0.0, 0.0, 0.0]], [[0.0, 0.0, 0.0, 1.0, 0.0, 0.0]], [[0.0, 0.0, 0.0, 0.0, 0.0, 1.0]]]}, {"children_left": [1, 2, -1, -1, 5, -1, 7, 8, 9, 10, -1, -1, 13, 14, -1, 16, -1, -1, -1, 20, 21, 22, -1, -1, 25, 26, -1, -1, -1, 30, 31, -1, -1, 34, 35, 36, -1, -1, 39, -1, 41, 42, -1, -1, -1, 46, -1, 48, -1, -1, -1], "children_right": [4, 3, -1, -1, 6, -1, 50, 19, 12, 11, -1, -1, 18, 15, -1, 17, -1, -1, -1, 29, 24, 23, -1, -1, 28, 27, -1, -1, -1, 33, 32, -1, -1, 45, 38, 37, -1, -1, 40, -1, 44, 43, -1, -1, -1, 47, -1, 49, -1, -1, -1], "feature": [35, 9, -2, -2, 36, -2, 5, 32, 28, 16, -2, -2, 40, 27, -2, 14, -2, -2, -2, 41, 34, 28, -2, -2, 17, 28, -2, -2, -2, 18, 26, -2, -2, 27, 28, 6, -2, -2, 23, -2, 21, 22, -2, -2, -2, 8, -2, 32, -2, -2, -2], "threshold": [-0.5441738665103912, -0.6270416676998138, -2.0, -2.0, -0.7632377445697784, -2.0, 0.14580440754070878, -0.20298976451158524, -0.5857776403427124, -0.9779310822486877, -2.0, -2.0, -0.11574890278279781, -0.5416427701711655, -2.0, -0.12162960693240166, -2.0, -2.0, -2.0, -0.7873072028160095, -0.09022118896245956, -0.09324094466865063, -2.0, -2.0, -0.8862451612949371, -3.545917570590973e-05, -2.0, -2.0, -2.0, -0.135872520506382, -0.09583723172545433, -2.0, -2.0, -0.3893943428993225, -0.097102589905262, 0.2763427048921585, -2.0, -2.0, -0.8802932798862457, -2.0, -0.7247350811958313, -0.045259278267621994, -2.0, -2.0, -2.0, -0.43288666009902954, -2.0, 0.5648939684033394, -2.0, -2.0, -2.0], "value": [[[0.16354166666666667, 0.18020833333333333, 0.17083333333333334, 0.15520833333333334, 0.18229166666666666, 0.14791666666666667]], [[0.0, 0.0, 0.9937888198757764, 0.006211180124223602, 0.0, 0.0]], [[0.0, 0.0, 1.0, 0.0, 0.0, 0.0]], [[0.0, 0.0, 0.0, 1.0, 0.0, 0.0]], [[0.1964956195244055, 0.2165206508135169, 0.0050062578222778474, 0.18523153942428036, 0.2190237797246558, 0.17772215269086358]], [[0.0, 1.0, 0.0, 0.0, 0.0, 0.0]], [[0.24416796267496113, 0.026438569206842923, 0.006220839813374806, 0.2301710730948678, 0.27216174183514774, 0.2208398133748056]], [[0.313373253493014, 0.033932135728542916, 0.007984031936127744, 0.2954091816367265, 0.34930139720558884, 0.0]], [[0.04419889502762431, 0.027624309392265192, 0.0, 0.027624309392265192, 0.9005524861878453, 0.0]], [[0.2857142857142857, 0.7142857142857143, 0.0, 0.0, 0.0, 0.0]], [[1.0, 0.0, 0.0, 0.0, 0.0, 0.0]], [[0.0, 1.0, 0.0, 0.0, 0.0, 0.0]], [[0.034482758620689655, 0.0, 0.0, 0.028735632183908046, 0.9367816091954023, 0.0]], [[0.03550295857988166, 0.0, 0.0, 0.0, 0.9644970414201184, 0.0]], [[1.0, 0.0, 0.0, 0.0, 0.0, 0.0]], [[0.023952095808383235, 0.0, 0.0, 0.0, 0.9760479041916168, 0.0]], [[0.0, 0.0, 0.0, 0.0, 1.0, 0.0]], [[1.0, 0.0, 0.0, 0.0, 0.0, 0.0]], [[0.0, 0.0, 0.0, 1.0, 0.0, 0.0]], [[0.465625, 0.0375, 0.0125, 0.446875, 0.0375, 0.0]], [[0.013888888888888888, 0.0, 0.006944444444444444, 0.9444444444444444, 0.034722222222222224, 0.0]], [[0.3333333333333333, 0.0, 0.0, 0.0, 0.6666666666666666, 0.0]], [[0.0, 0.0, 0.0, 0.0, 1.0, 0.0]], [[1.0, 0.0, 0.0, 0.0, 0.0, 0.0]], [[0.0, 0.0, 0.007246376811594203, 0.9855072463768116, 0.007246376811594203, 0.0]], [[0.0, 0.0, 0.5, 0.0, 0.5, 0.0]], [[0.0, 0.0, 1.0, 0.0, 0.0, 0.0]], [[0.0, 0.0, 0.0, 0.0, 1.0, 0.0]], [[0.0, 0.0, 0.0, 1.0, 0.0, 0.0]], [[0.8352272727272727, 0.06818181818181818, 0.017045454545454544, 0.03977272727272727, 0.03977272727272727, 0.0]], [[0.0, 0.0, 0.0, 0.5454545454545454, 0.45454545454545453, 0.0]], [[0.0, 0.0, 0.0, 0.0, 1.0, 0.0]], [[0.0, 0.0, 0.0, 1.0, 0.0, 0.0]], [[0.8909090909090909, 0.07272727272727272, 0.01818181818181818, 0.006060606060606061, 0.012121212121212121, 0.0]], [[0.9662162162162162, 0.0, 0.02027027027027027, 0.0, 0.013513513513513514, 0.0]], [[0.7, 0.0, 0.3, 0.0, 0.0, 0.0]], [[1.0, 0.0, 0.0, 0.0, 0.0, 0.0]], [[0.0, 0.0, 1.0, 0.0, 0.0, 0.0]], [[0.9855072463768116, 0.0, 0.0, 0.0, 0.014492753623188406, 0.0]], [[0.0, 0.0, 0.0, 0.0, 1.0, 0.0]], [[0.9927007299270073, 0.0, 0.0, 0.0, 0.0072992700729927005, 0.0]], [[0.9230769230769231, 0.0, 0.0, 0.0, 0.07692307692307693, 0.0]], [[0.0, 0.0, 0.0, 0.0, 1.0, 0.0]], [[1.0, 0.0, 0.0, 0.0, 0.0, 0.0]], [[1.0, 0.0, 0.0, 0.0, 0.0, 0.0]], [[0.23529411764705882, 0.7058823529411765, 0.0, 0.058823529411764705, 0.0, 0.0]], [[0.0, 1.0, 0.0, 0.0, 0.0, 0.0]], [[0.8, 0.0, 0.0, 0.2, 0.0, 0.0]], [[1.0, 0.0, 0.0, 0.0, 0.0, 0.0]], [[0.0, 0.0, 0.0, 1.0, 0.0, 0.0]], [[0.0, 0.0, 0.0, 0.0, 0.0, 1.0]]]}, {"children_left": [1, 2, -1, 4, -1, 6, 7, 8, -1, 10, -1, -1, -1, 14, -1, 16, 17, 18, 19, 20, -1, -1, -1, -1, -1, 26, -1, -1, -1], "children_right": [28, 3, -1, 5, -1, 13, 12, 9, -1, 11, -1, -1, -1, 15, -1, 25, 24, 23, 22, 21, -1, -1, -1, -1, -1, 27, -1, -1, -1], "feature": [39, 21, -2, 38, -2, 35, 21, 25, -2, 34, -2, -2, -2, 22, -2, 24, 37, 14, 33, 13, -2, -2, -2, -2, -2, 35, -2, -2, -2], "threshold": [0.44418932497501373, -0.7709963023662567, -2.0, -0.6558182239532471, -2.0, -0.4224983900785446, -0.6700659692287445, -0.9898794591426849, -2.0, -0.08987874537706375, -2.0, -2.0, -2.0, -0.17337599396705627, -2.0, -0.0367551501840353, -0.4261343330144882, -0.250776082277298, -0.941348671913147, -0.6560814082622528, -2.0, -2.0, -2.0, -2.0, -2.0, -0.41090457141399384, -2.0, -2.0, -2.0], "value": [[[0.175, 0.16354166666666667, 0.16875, 0.1625, 0.16875, 0.16145833333333334]], [[0.20869565217391303, 0.19503105590062111, 0.20124223602484473, 0.1937888198757764, 0.20124223602484473, 0.0]], [[0.0, 0.0, 1.0, 0.0, 0.0, 0.0]], [[0.2608695652173913, 0.24378881987577639, 0.0015527950310559005, 0.2422360248447205, 0.2515527950310559, 0.0]], [[0.0, 1.0, 0.0, 0.0, 0.0, 0.0]], [[0.34146341463414637, 0.01016260162601626, 0.0020325203252032522, 0.3170731707317073, 0.32926829268292684, 0.0]], [[0.0, 0.006060606060606061, 0.0, 0.9454545454545454, 0.048484848484848485, 0.0]], [[0.0, 0.0, 0.0, 0.9512195121951219, 0.04878048780487805, 0.0]], [[0.0, 0.0, 0.0, 0.0, 1.0, 0.0]], [[0.0, 0.0, 0.0, 0.9936305732484076, 0.006369426751592357, 0.0]], [[0.0, 0.0, 0.0, 0.0, 1.0, 0.0]], [[0.0, 0.0, 0.0, 1.0, 0.0, 0.0]], [[0.0, 1.0, 0.0, 0.0, 0.0, 0.0]], [[0.5137614678899083, 0.012232415902140673, 0.0030581039755351682, 0.0, 0.4709480122324159, 0.0]], [[0.0, 0.0, 0.0, 0.0, 1.0, 0.0]], [[0.9545454545454546, 0.022727272727272728, 0.005681818181818182, 0.0, 0.017045454545454544, 0.0]], [[0.8833333333333333, 0.06666666666666667, 0.0, 0.0, 0.05, 0.0]], [[0.9298245614035088, 0.017543859649122806, 0.0, 0.0, 0.05263157894736842, 0.0]], [[0.8333333333333334, 0.041666666666666664, 0.0, 0.0, 0.125, 0.0]], [[0.0, 0.25, 0.0, 0.0, 0.75, 0.0]], [[0.0, 0.0, 0.0, 0.0, 1.0, 0.0]], [[0.0, 1.0, 0.0, 0.0, 0.0, 0.0]], [[1.0, 0.0, 0.0, 0.0, 0.0, 0.0]], [[1.0, 0.0, 0.0, 0.0, 0.0, 0.0]], [[0.0, 1.0, 0.0, 0.0, 0.0, 0.0]], [[0.9913793103448276, 0.0, 0.008620689655172414, 0.0, 0.0, 0.0]], [[0.0, 0.0, 1.0, 0.0, 0.0, 0.0]], [[1.0, 0.0, 0.0, 0.0, 0.0, 0.0]], [[0.0, 0.0, 0.0, 0.0, 0.0, 1.0]]]}, {"children_left": [1, 2, -1, 4, -1, -1, 7, 8, 9, -1, -1, 12, 13, 14, 15, -1, 17, -1, -1, -1, 21, -1, -1, 24, 25, -1, -1, 28, 29, 30, 31, -1, -1, -1, 35, -1, -1, 38, -1, 40, -1, -1, -1], "children_right": [6, 3, -1, 5, -1, -1, 42, 11, 10, -1, -1, 23, 20, 19, 16, -1, 18, -1, -1, -1, 22, -1, -1, 27, 26, -1, -1, 37, 34, 33, 32, -1, -1, -1, 36, -1, -1, 39, -1, 41, -1, -1, -1], "feature": [27, 15, -2, 3, -2, -2, 3, 8, 37, -2, -2, 27, 15, 13, 36, -2, 35, -2, -2, -2, 9, -2, -2, 28, 8, -2, -2, 27, 23, 22, 27, -2, -2, -2, 31, -2, -2, 7, -2, 21, -2, -2, -2], "threshold": [-0.6436666250228882, -1.127827763557434, -2.0, -0.1500926222652197, -2.0, -2.0, 0.06867370009422302, -0.61559197306633, -0.19876272231340408, -2.0, -2.0, -0.48189927637577057, -0.7951763272285461, -0.6883267462253571, -0.2019173502922058, -2.0, -0.4726402014493942, -2.0, -2.0, -2.0, -0.31750263273715973, -2.0, -2.0, -0.14800169318914413, -0.004940301179885864, -2.0, -2.0, -0.39036567509174347, -0.8330946564674377, -0.05604735016822815, -0.45803704857826233, -2.0, -2.0, -2.0, -0.8642638027667999, -2.0, -2.0, -0.3477519154548645, -2.0, -0.3345722034573555, -2.0, -2.0, -2.0], "value": [[[0.16875, 0.171875, 0.178125, 0.16458333333333333, 0.15208333333333332, 0.16458333333333333]], [[0.0, 0.0, 0.9940828402366864, 0.005917159763313609, 0.0, 0.0]], [[0.0, 0.0, 1.0, 0.0, 0.0, 0.0]], [[0.0, 0.0, 0.6666666666666666, 0.3333333333333333, 0.0, 0.0]], [[0.0, 0.0, 1.0, 0.0, 0.0, 0.0]], [[0.0, 0.0, 0.0, 1.0, 0.0, 0.0]], [[0.20480404551201012, 0.20859671302149177, 0.0037926675094816687, 0.19848293299620734, 0.1845764854614412, 0.1997471554993679]], [[0.2559241706161137, 0.26066350710900477, 0.004739336492890996, 0.2480252764612954, 0.23064770932069512, 0.0]], [[0.006329113924050633, 0.9936708860759493, 0.0, 0.0, 0.0, 0.0]], [[1.0, 0.0, 0.0, 0.0, 0.0, 0.0]], [[0.0, 1.0, 0.0, 0.0, 0.0, 0.0]], [[0.3389473684210526, 0.016842105263157894, 0.00631578947368421, 0.33052631578947367, 0.30736842105263157, 0.0]], [[0.03592814371257485, 0.0, 0.017964071856287425, 0.9221556886227545, 0.023952095808383235, 0.0]], [[0.5454545454545454, 0.0, 0.2727272727272727, 0.0, 0.18181818181818182, 0.0]], [[0.6666666666666666, 0.0, 0.3333333333333333, 0.0, 0.0, 0.0]], [[0.0, 0.0, 1.0, 0.0, 0.0, 0.0]], [[0.8571428571428571, 0.0, 0.14285714285714285, 0.0, 0.0, 0.0]], [[0.0, 0.0, 1.0, 0.0, 0.0, 0.0]], [[1.0, 0.0, 0.0, 0.0, 0.0, 0.0]], [[0.0, 0.0, 0.0, 0.0, 1.0, 0.0]], [[0.0, 0.0, 0.0, 0.9871794871794872, 0.01282051282051282, 0.0]], [[0.0, 0.0, 0.0, 0.0, 1.0, 0.0]], [[0.0, 0.0, 0.0, 1.0, 0.0, 0.0]], [[0.5032467532467533, 0.025974025974025976, 0.0, 0.00974025974025974, 0.461038961038961, 0.0]], [[0.02097902097902098, 0.0, 0.0, 0.0, 0.9790209790209791, 0.0]], [[0.0, 0.0, 0.0, 0.0, 1.0, 0.0]], [[1.0, 0.0, 0.0, 0.0, 0.0, 0.0]], [[0.9212121212121213, 0.048484848484848485, 0.0, 0.01818181818181818, 0.012121212121212121, 0.0]], [[0.972972972972973, 0.006756756756756757, 0.0, 0.006756756756756757, 0.013513513513513514, 0.0]], [[0.9863013698630136, 0.0, 0.0, 0.0, 0.0136986301369863, 0.0]], [[0.9310344827586207, 0.0, 0.0, 0.0, 0.06896551724137931, 0.0]], [[0.0, 0.0, 0.0, 0.0, 1.0, 0.0]], [[1.0, 0.0, 0.0, 0.0, 0.0, 0.0]], [[1.0, 0.0, 0.0, 0.0, 0.0, 0.0]], [[0.0, 0.5, 0.0, 0.5, 0.0, 0.0]], [[0.0, 1.0, 0.0, 0.0, 0.0, 0.0]], [[0.0, 0.0, 0.0, 1.0, 0.0, 0.0]], [[0.47058823529411764, 0.4117647058823529, 0.0, 0.11764705882352941, 0.0, 0.0]], [[1.0, 0.0, 0.0, 0.0, 0.0, 0.0]], [[0.0, 0.7777777777777778, 0.0, 0.2222222222222222, 0.0, 0.0]], [[0.0, 1.0, 0.0, 0.0, 0.0, 0.0]], [[0.0, 0.0, 0.0, 1.0, 0.0, 0.0]], [[0.0, 0.0, 0.0, 0.0, 0.0, 1.0]]]}, {"children_left": [1, -1, 3, 4, 5, -1, 7, -1, -1, 10, 11, -1, -1, 14, 15, 16, -1, 18, -1, -1, -1, 22, 23, 24, -1, -1, 27, 28, -1, -1, -1, 32, -1, -1, -1], "children_right": [2, -1, 34, 9, 6, -1, 8, -1, -1, 13, 12, -1, -1, 21, 20, 17, -1, 19, -1, -1, -1, 31, 26, 25, -1, -1, 30, 29, -1, -1, -1, 33, -1, -1, -1], "feature": [18, -2, 17, 21, 35, -2, 3, -2, -2, 29, 34, -2, -2, 32, 22, 23, -2, 29, -2, -2, -2, 41, 2, 30, -2, -2, 27, 4, -2, -2, -2, 24, -2, -2, -2], "threshold": [-0.5009662210941315, -2.0, 0.44096697960048914, -0.7675678431987762, -0.4726402014493942, -2.0, -0.15866972506046295, -2.0, -2.0, -0.6997993588447571, -0.11158452555537224, -2.0, -2.0, -0.19029127061367035, -0.1747727319598198, -0.5484485328197479, -2.0, -0.3957761228084564, -2.0, -2.0, -2.0, -0.5432239472866058, -0.146564282476902, -0.16378086060285568, -2.0, -2.0, -0.46343809366226196, 0.03268016129732132, -2.0, -2.0, -2.0, 0.4792420193552971, -2.0, -2.0, -2.0], "value": [[[0.1625, 0.18541666666666667, 0.16354166666666667, 0.15520833333333334, 0.16875, 0.16458333333333333]], [[0.0, 1.0, 0.0, 0.0, 0.0, 0.0]], [[0.19746835443037974, 0.010126582278481013, 0.19873417721518988, 0.18860759493670887, 0.20506329113924052, 0.2]], [[0.2468354430379747, 0.012658227848101266, 0.24841772151898733, 0.23575949367088608, 0.2563291139240506, 0.0]], [[0.012658227848101266, 0.006329113924050633, 0.9810126582278481, 0.0, 0.0, 0.0]], [[0.0, 0.0, 1.0, 0.0, 0.0, 0.0]], [[0.6666666666666666, 0.3333333333333333, 0.0, 0.0, 0.0, 0.0]], [[0.0, 1.0, 0.0, 0.0, 0.0, 0.0]], [[1.0, 0.0, 0.0, 0.0, 0.0, 0.0]], [[0.32489451476793246, 0.014767932489451477, 0.004219409282700422, 0.3143459915611814, 0.34177215189873417, 0.0]], [[0.0, 0.0, 0.013513513513513514, 0.9864864864864865, 0.0, 0.0]], [[0.0, 0.0, 1.0, 0.0, 0.0, 0.0]], [[0.0, 0.0, 0.0, 1.0, 0.0, 0.0]], [[0.4723926380368098, 0.02147239263803681, 0.0, 0.009202453987730062, 0.49693251533742333, 0.0]], [[0.06896551724137931, 0.022988505747126436, 0.0, 0.0, 0.9080459770114943, 0.0]], [[0.006134969325153374, 0.024539877300613498, 0.0, 0.0, 0.9693251533742331, 0.0]], [[0.0, 0.0, 0.0, 0.0, 1.0, 0.0]], [[0.2, 0.8, 0.0, 0.0, 0.0, 0.0]], [[1.0, 0.0, 0.0, 0.0, 0.0, 0.0]], [[0.0, 1.0, 0.0, 0.0, 0.0, 0.0]], [[1.0, 0.0, 0.0, 0.0, 0.0, 0.0]], [[0.9342105263157895, 0.019736842105263157, 0.0, 0.019736842105263157, 0.02631578947368421, 0.0]], [[0.9659863945578231, 0.0, 0.0, 0.006802721088435374, 0.027210884353741496, 0.0]], [[0.0, 0.0, 0.0, 0.3333333333333333, 0.6666666666666666, 0.0]], [[0.0, 0.0, 0.0, 1.0, 0.0, 0.0]], [[0.0, 0.0, 0.0, 0.0, 1.0, 0.0]], [[0.9861111111111112, 0.0, 0.0, 0.0, 0.013888888888888888, 0.0]], [[0.8666666666666667, 0.0, 0.0, 0.0, 0.13333333333333333, 0.0]], [[0.0, 0.0, 0.0, 0.0, 1.0, 0.0]], [[1.0, 0.0, 0.0, 0.0, 0.0, 0.0]], [[1.0, 0.0, 0.0, 0.0, 0.0, 0.0]], [[0.0, 0.6, 0.0, 0.4, 0.0, 0.0]], [[0.0, 1.0, 0.0, 0.0, 0.0, 0.0]], [[0.0, 0.0, 0.0, 1.0, 0.0, 0.0]], [[0.0, 0.0, 0.0, 0.0, 0.0, 1.0]]]}, {"children_left": [1, 2, -1, 4, 5, -1, -1, 8, 9, -1, -1, 12, -1, -1, 15, -1, 17, 18, 19, 20, -1, -1, 23, -1, -1, 26, 27, 28, -1, -1, 31, -1, 33, 34, -1, -1, -1, -1, -1], "children_right": [14, 3, -1, 7, 6, -1, -1, 11, 10, -1, -1, 13, -1, -1, 16, -1, 38, 25, 22, 21, -1, -1, 24, -1, -1, 37, 30, 29, -1, -1, 32, -1, 36, 35, -1, -1, -1, -1, -1], "feature": [29, 9, -2, 17, 16, -2, -2, 5, 28, -2, -2, 21, -2, -2, 3, -2, 41, 20, 4, 2, -2, -2, 40, -2, -2, 39, 11, 30, -2, -2, 41, -2, 15, 6, -2, -2, -2, -2, -2], "threshold": [-0.6971735060214996, -0.6314762234687805, -2.0, -0.8862451612949371, 0.16447990387678146, -2.0, -2.0, -0.17583699524402618, -0.09688219707459211, -2.0, -2.0, -0.6700659692287445, -2.0, -2.0, -0.34648825228214264, -2.0, 0.3991159498691559, -0.15219032764434814, -0.34599414467811584, -0.19462020695209503, -2.0, -2.0, -0.05680438503623009, -2.0, -2.0, -0.4435674399137497, -0.5400812923908234, -0.018250808119773865, -2.0, -2.0, -0.6297727823257446, -2.0, -0.8039581477642059, -0.34234656393527985, -2.0, -2.0, -2.0, -2.0, -2.0], "value": [[[0.1875, 0.17083333333333334, 0.15416666666666667, 0.17708333333333334, 0.16458333333333333, 0.14583333333333334]], [[0.006153846153846154, 0.003076923076923077, 0.4553846153846154, 0.52, 0.015384615384615385, 0.0]], [[0.0, 0.0, 1.0, 0.0, 0.0, 0.0]], [[0.011299435028248588, 0.005649717514124294, 0.0, 0.9548022598870056, 0.02824858757062147, 0.0]], [[0.0, 0.0, 0.0, 0.2, 0.8, 0.0]], [[0.0, 0.0, 0.0, 0.0, 1.0, 0.0]], [[0.0, 0.0, 0.0, 1.0, 0.0, 0.0]], [[0.011627906976744186, 0.005813953488372093, 0.0, 0.9767441860465116, 0.005813953488372093, 0.0]], [[0.6666666666666666, 0.0, 0.0, 0.0, 0.3333333333333333, 0.0]], [[1.0, 0.0, 0.0, 0.0, 0.0, 0.0]], [[0.0, 0.0, 0.0, 0.0, 1.0, 0.0]], [[0.0, 0.005917159763313609, 0.0, 0.9940828402366864, 0.0, 0.0]], [[0.0, 0.0, 0.0, 1.0, 0.0, 0.0]], [[0.0, 1.0, 0.0, 0.0, 0.0, 0.0]], [[0.2803149606299213, 0.2566929133858268, 0.0, 0.0015748031496062992, 0.2409448818897638, 0.2204724409448819]], [[0.0, 1.0, 0.0, 0.0, 0.0, 0.0]], [[0.3700623700623701, 0.018711018711018712, 0.0, 0.002079002079002079, 0.3180873180873181, 0.2910602910602911]], [[0.5219941348973607, 0.026392961876832845, 0.0, 0.002932551319648094, 0.44868035190615835, 0.0]], [[0.025, 0.0125, 0.0, 0.00625, 0.95625, 0.0]], [[0.6666666666666666, 0.3333333333333333, 0.0, 0.0, 0.0, 0.0]], [[1.0, 0.0, 0.0, 0.0, 0.0, 0.0]], [[0.0, 1.0, 0.0, 0.0, 0.0, 0.0]], [[0.0, 0.0, 0.0, 0.006493506493506494, 0.9935064935064936, 0.0]], [[0.0, 0.0, 0.0, 0.0, 1.0, 0.0]], [[0.0, 0.0, 0.0, 1.0, 0.0, 0.0]], [[0.9613259668508287, 0.03867403314917127, 0.0, 0.0, 0.0, 0.0]], [[0.9830508474576272, 0.01694915254237288, 0.0, 0.0, 0.0, 0.0]], [[0.5, 0.5, 0.0, 0.0, 0.0, 0.0]], [[1.0, 0.0, 0.0, 0.0, 0.0, 0.0]], [[0.0, 1.0, 0.0, 0.0, 0.0, 0.0]], [[0.9885714285714285, 0.011428571428571429, 0.0, 0.0, 0.0, 0.0]], [[1.0, 0.0, 0.0, 0.0, 0.0, 0.0]], [[0.9375, 0.0625, 0.0, 0.0, 0.0, 0.0]], [[0.967741935483871, 0.03225806451612903, 0.0, 0.0, 0.0, 0.0]], [[0.0, 1.0, 0.0, 0.0, 0.0, 0.0]], [[1.0, 0.0, 0.0, 0.0, 0.0, 0.0]], [[0.0, 1.0, 0.0, 0.0, 0.0, 0.0]], [[0.0, 1.0, 0.0, 0.0, 0.0, 0.0]], [[0.0, 0.0, 0.0, 0.0, 0.0, 1.0]]]}, {"children_left": [1, -1, 3, 4, -1, 6, 7, 8, 9, -1, -1, -1, 13, -1, 15, -1, 17, -1, -1, 20, 21, -1, 23, -1, 25, 26, -1, -1, 29, -1, -1, 32, 33, -1, 35, 36, -1, -1, -1, 40, -1, 42, -1, -1, -1], "children_right": [2, -1, 44, 5, -1, 19, 12, 11, 10, -1, -1, -1, 14, -1, 16, -1, 18, -1, -1, 31, 22, -1, 24, -1, 28, 27, -1, -1, 30, -1, -1, 39, 34, -1, 38, 37, -1, -1, -1, 41, -1, 43, -1, -1, -1], "feature": [26, -2, 37, 15, -2, 30, 15, 10, 4, -2, -2, -2, 37, -2, 18, -2, 17, -2, -2, 25, 21, -2, 33, -2, 35, 18, -2, -2, 22, -2, -2, 35, 3, -2, 9, 24, -2, -2, -2, 26, -2, 35, -2, -2, -2], "threshold": [-0.4607235789299011, -2.0, 0.3993299752473831, -1.00200754404068, -2.0, -0.18285249918699265, -0.7297463119029999, -0.04789357865229249, -0.3551832586526871, -2.0, -2.0, -2.0, -0.4734596014022827, -2.0, -0.4209296554327011, -2.0, -0.6504962742328644, -2.0, -2.0, -0.9846227467060089, -0.7478645145893097, -2.0, -0.9739828705787659, -2.0, -0.2844003140926361, -0.13289421796798706, -2.0, -2.0, -0.004706490726675838, -2.0, -2.0, -0.42644956707954407, -0.07352802343666553, -2.0, -0.2831059545278549, 0.23653949797153473, -2.0, -2.0, -2.0, -0.018378466367721558, -2.0, -0.06518609821796417, -2.0, -2.0, -2.0], "value": [[[0.16145833333333334, 0.178125, 0.16666666666666666, 0.17708333333333334, 0.146875, 0.16979166666666667]], [[0.0, 1.0, 0.0, 0.0, 0.0, 0.0]], [[0.1952141057934509, 0.006297229219143577, 0.20151133501259447, 0.2141057934508816, 0.17758186397984888, 0.2052896725440806]], [[0.24564183835182252, 0.00792393026941363, 0.25356576862123614, 0.2694136291600634, 0.22345483359746435, 0.0]], [[0.0, 0.0, 1.0, 0.0, 0.0, 0.0]], [[0.3263157894736842, 0.010526315789473684, 0.008421052631578947, 0.35789473684210527, 0.2968421052631579, 0.0]], [[0.05405405405405406, 0.013513513513513514, 0.0, 0.02702702702702703, 0.9054054054054054, 0.0]], [[0.04316546762589928, 0.0, 0.0, 0.0, 0.9568345323741008, 0.0]], [[0.014814814814814815, 0.0, 0.0, 0.0, 0.9851851851851852, 0.0]], [[1.0, 0.0, 0.0, 0.0, 0.0, 0.0]], [[0.0, 0.0, 0.0, 0.0, 1.0, 0.0]], [[1.0, 0.0, 0.0, 0.0, 0.0, 0.0]], [[0.2222222222222222, 0.2222222222222222, 0.0, 0.4444444444444444, 0.1111111111111111, 0.0]], [[0.0, 0.0, 0.0, 1.0, 0.0, 0.0]], [[0.4, 0.4, 0.0, 0.0, 0.2, 0.0]], [[1.0, 0.0, 0.0, 0.0, 0.0, 0.0]], [[0.0, 0.6666666666666666, 0.0, 0.0, 0.3333333333333333, 0.0]], [[0.0, 0.0, 0.0, 0.0, 1.0, 0.0]], [[0.0, 1.0, 0.0, 0.0, 0.0, 0.0]], [[0.44954128440366975, 0.009174311926605505, 0.012232415902140673, 0.5076452599388379, 0.021406727828746176, 0.0]], [[0.9411764705882353, 0.013071895424836602, 0.026143790849673203, 0.0, 0.0196078431372549, 0.0]], [[0.0, 0.0, 1.0, 0.0, 0.0, 0.0]], [[0.9664429530201343, 0.013422818791946308, 0.0, 0.0, 0.020134228187919462, 0.0]], [[0.0, 0.0, 0.0, 0.0, 1.0, 0.0]], [[0.9795918367346939, 0.013605442176870748, 0.0, 0.0, 0.006802721088435374, 0.0]], [[0.9924242424242424, 0.0, 0.0, 0.0, 0.007575757575757576, 0.0]], [[0.0, 0.0, 0.0, 0.0, 1.0, 0.0]], [[1.0, 0.0, 0.0, 0.0, 0.0, 0.0]], [[0.8666666666666667, 0.13333333333333333, 0.0, 0.0, 0.0, 0.0]], [[0.0, 1.0, 0.0, 0.0, 0.0, 0.0]], [[1.0, 0.0, 0.0, 0.0, 0.0, 0.0]], [[0.017241379310344827, 0.005747126436781609, 0.0, 0.9540229885057471, 0.022988505747126436, 0.0]], [[0.0, 0.005988023952095809, 0.0, 0.9820359281437125, 0.011976047904191617, 0.0]], [[0.0, 0.0, 0.0, 0.0, 1.0, 0.0]], [[0.0, 0.006060606060606061, 0.0, 0.9939393939393939, 0.0, 0.0]], [[0.0, 0.5, 0.0, 0.5, 0.0, 0.0]], [[0.0, 0.0, 0.0, 1.0, 0.0, 0.0]], [[0.0, 1.0, 0.0, 0.0, 0.0, 0.0]], [[0.0, 0.0, 0.0, 1.0, 0.0, 0.0]], [[0.42857142857142855, 0.0, 0.0, 0.2857142857142857, 0.2857142857142857, 0.0]], [[0.0, 0.0, 0.0, 0.0, 1.0, 0.0]], [[0.6, 0.0, 0.0, 0.4, 0.0, 0.0]], [[1.0, 0.0, 0.0, 